{"learner":{"attributes":{"best_iteration":"49","best_ntree_limit":"50","scikit_learn":"{\"use_label_encoder\": false, \"n_estimators\": 50, \"objective\": \"binary:logistic\", \"max_depth\": 6, \"max_leaves\": 0, \"max_bin\": 256, \"grow_policy\": \"depthwise\", \"learning_rate\": 0.1, \"verbosity\": null, \"booster\": \"gbtree\", \"tree_method\": \"exact\", \"gamma\": 8, \"min_child_weight\": 1, \"max_delta_step\": 0, \"subsample\": 1, \"sampling_method\": \"uniform\", \"colsample_bytree\": 0.6, \"colsample_bylevel\": 1, \"colsample_bynode\": 1, \"reg_alpha\": 0, \"reg_lambda\": 1, \"scale_pos_weight\": 1, \"base_score\": 0.5, \"missing\": NaN, \"num_parallel_tree\": 1, \"random_state\": 42, \"n_jobs\": 0, \"monotone_constraints\": \"()\", \"interaction_constraints\": \"\", \"importance_type\": null, \"gpu_id\": -1, \"validate_parameters\": 1, \"predictor\": \"auto\", \"enable_categorical\": false, \"max_cat_to_onehot\": 4, \"eval_metric\": null, \"early_stopping_rounds\": null, \"callbacks\": null, \"classes_\": [0, 1], \"n_classes_\": 2, \"_estimator_type\": \"classifier\"}"},"feature_names":["Pregnancies","Glucose","BloodPressure","BMI","DiabetesPedigreeFunction","Age"],"feature_types":["int","int","int","float","float","int"],"gradient_booster":{"model":{"gbtree_model_param":{"num_parallel_tree":"1","num_trees":"50","size_leaf_vector":"0"},"tree_info":[0,0,0,0,0,0,0,0,0,0,0,0,0,0,0,0,0,0,0,0,0,0,0,0,0,0,0,0,0,0,0,0,0,0,0,0,0,0,0,0,0,0,0,0,0,0,0,0,0,0],"trees":[{"base_weights":[-7.334669E-1,-1.1670951E0,7.719298E-1,-1.6421052E0,-6.995074E-1,7.1428575E-2,1.3548387E0,-1.7935483E0,-8.717949E-1,-1.168E0,4.8780486E-2,-6.2857145E-1,1.04E0,3.3333334E-1,1.4814814E0,-1.8145696E0,-5E-1,-1.3333334E0,-4E-1,-1.2941177E0,-5.185185E-1,-1.5294118E0,4.347826E-1,-8.965517E-1,4E-1,-0E0,5E-1,-1E0,-9.52381E-2,-1.5151515E0,-8E-1,-1.1428572E0,1.1764706E-1,1E0,1.2244898E-1,-1E0,-2.2222222E-1,-5.4545456E-1,2.857143E-1,-1.2E0,2.857143E-1,5.4545456E-1,-4E-1,1.3684211E0,-2.2222222E-1,-4.4444445E-1,4E-1,-5E-1,-1.3333334E0],"categories":[],"categories_nodes":[],"categories_segments":[],"categories_sizes":[],"default_left":[1,1,1,1,1,1,1,1,1,1,1,1,0,1,1,1,1,1,1,1,1,0,1,1,1,1,1,1,1,1,1,1,1,1,1,1,1,1,1,1,1,1,1,1,1,1,1,1,1],"id":0,"left_children":[1,3,5,-1,9,11,-1,-1,-1,-1,21,-1,-1,-1,-1,-1,-1,-1,-1,-1,-1,-1,-1,-1,-1,-1,-1,-1,-1,-1,-1,-1,-1,-1,-1,-1,-1,-1,-1,-1,-1,-1,-1,-1,-1,-1,-1,-1,-1],"loss_changes":[8.233553E1,2.0451416E1,1.1540585E1,3.9776611E0,1.784827E1,1.0145715E1,1.5113506E0,1.4640045E-1,1.5897436E0,1.8886986E0,1.3153265E1,2.7704434E0,0E0,1.6666666E-1,0E0,0E0,0E0,0E0,1.0476191E0,1.5729065E0,2.8154376E0,0E0,2.9228039E0,2.83525E-1,0E0,0E0,0E0,0E0,1.056277E0,0E0,4.6857142E0,0E0,1.1593583E0,3.005848E0,2.1052155E0,3.333335E-1,0E0,0E0,0E0,0E0,0E0,0E0,0E0,0E0,0E0,0E0,0E0,0E0,0E0],"parents":[2147483647,0,0,1,1,2,2,3,3,4,4,5,5,6,6,7,7,8,8,9,9,10,10,11,11,13,13,18,18,19,19,20,20,22,22,23,23,28,28,30,30,32,32,33,33,34,34,35,35],"right_children":[2,4,6,-1,10,12,-1,-1,-1,-1,22,-1,-1,-1,-1,-1,-1,-1,-1,-1,-1,-1,-1,-1,-1,-1,-1,-1,-1,-1,-1,-1,-1,-1,-1,-1,-1,-1,-1,-1,-1,-1,-1,-1,-1,-1,-1,-1,-1],"split_conditions":[1.415E2,1.065E2,1.575E2,-1.6421053E-1,3.05E1,3.75E1,1.3548388E-1,-1.7935483E-1,-8.717949E-2,-1.168E-1,2.7349998E1,-6.285714E-2,1.03999995E-1,3.3333335E-2,1.4814815E-1,-1.8145697E-1,-5E-2,-1.3333334E-1,-4.0000003E-2,-1.2941177E-1,-5.185185E-2,-1.5294118E-1,4.347826E-2,-8.9655176E-2,4.0000003E-2,-0E0,5E-2,-1E-1,-9.52381E-3,-1.5151516E-1,-8.0000006E-2,-1.1428572E-1,1.1764706E-2,1E-1,1.2244898E-2,-1E-1,-2.2222223E-2,-5.454546E-2,2.857143E-2,-1.20000005E-1,2.857143E-2,5.454546E-2,-4.0000003E-2,1.3684212E-1,-2.2222223E-2,-4.4444446E-2,4.0000003E-2,-5E-2,-1.3333334E-1],"split_indices":[1,1,1,3,5,5,3,2147483647,2147483647,1,3,3,0,2147483647,2147483647,2147483647,2147483647,2147483647,2147483647,2147483647,2147483647,0,1,2147483647,2147483647,2147483647,2147483647,2147483647,2147483647,2147483647,2147483647,2147483647,2147483647,2147483647,2147483647,2147483647,2147483647,2147483647,2147483647,2147483647,2147483647,2147483647,2147483647,2147483647,2147483647,2147483647,2147483647,2147483647,2147483647],"split_type":[0,0,0,0,0,0,0,0,0,0,0,0,0,0,0,0,0,0,0,0,0,0,0,0,0,0,0,0,0,0,0,0,0,0,0,0,0,0,0,0,0,0,0,0,0,0,0,0,0],"sum_hessian":[1.2375E2,9.625E1,2.75E1,4.65E1,4.975E1,1.3E1,1.45E1,3.775E1,8.75E0,3.025E1,1.95E1,7.75E0,5.25E0,2E0,1.25E1,3.675E1,1E0,3.5E0,5.25E0,2.45E1,5.75E0,3.25E0,1.625E1,6.25E0,1.5E0,1E0,1E0,1E0,4.25E0,1.55E1,9E0,2.5E0,3.25E0,5E0,1.125E1,5E0,1.25E0,1.75E0,2.5E0,6.5E0,2.5E0,1.75E0,1.5E0,3.75E0,1.25E0,3.5E0,7.75E0,3E0,2E0],"tree_param":{"num_deleted":"36","num_feature":"6","num_nodes":"49","size_leaf_vector":"0"}},{"base_weights":[-6.64807E-1,-1.2179612E0,-1.0385658E-1,-1.6540099E0,-7.473321E-1,-1.0454743E0,1.04044974E-1,5.975946E-1,-8.4503955E-1,-1.3542213E0,-3.7270337E-1,-3.8623822E-1,1.9434792E-1,-1.0032463E0,-1.1286346E-1,-1.0129107E0,5.1887375E-1,-7.0136692E-3,-9.962858E-1,-6.9271185E-2,4.3313068E-1,5.6365866E-2,-1.0989771E0,-5.548767E-1,8.1529444E-1,-6.0962147E-1,2.6584983E-1,6.5083593E-1,-1.7260115E-1,2.8051406E-1,9.488235E-1,-8.570807E-1,-1.3096763E0,2.6491806E-1,-8.9866686E-1,7.414919E-1,-2.98859E-1,-5.0038785E-1,2.3171984E-1,3.2441344E-2,7.275501E-1,2.0108059E-1,1.1441102E0],"categories":[],"categories_nodes":[],"categories_segments":[],"categories_sizes":[],"default_left":[1,1,1,0,1,1,1,1,1,1,1,1,1,1,1,1,1,1,1,1,1,1,1,1,1,1,1,1,1,1,1,1,1,1,1,1,1,1,1,1,1,1,1],"id":1,"left_children":[1,3,5,-1,-1,-1,-1,-1,-1,-1,-1,-1,-1,-1,-1,-1,-1,-1,-1,-1,-1,-1,-1,-1,-1,-1,-1,-1,-1,-1,-1,-1,-1,-1,-1,-1,-1,-1,-1,-1,-1,-1,-1],"loss_changes":[3.8418056E1,1.1580032E1,1.2396615E1,0E0,4.691572E0,1.8721361E0,2.3917408E0,0E0,3.3752098E0,0E0,3.3676639E0,1.953287E0,2.8533642E0,2.5611382E0,3.1099603E0,0E0,0E0,1.1868445E0,0E0,1.7626979E0,1.5969672E0,0E0,3.166008E-2,1.6425017E0,0E0,0E0,1.5608869E0,0E0,2.7913356E0,2.1595843E0,4.9805164E-1,0E0,0E0,0E0,0E0,0E0,0E0,0E0,0E0,0E0,0E0,0E0,0E0],"parents":[2147483647,0,0,1,1,2,2,4,4,5,5,6,6,8,8,10,10,11,11,12,12,13,13,14,14,17,17,19,19,20,20,22,22,23,23,26,26,28,28,29,29,30,30],"right_children":[2,4,6,-1,-1,-1,-1,-1,-1,-1,-1,-1,-1,-1,-1,-1,-1,-1,-1,-1,-1,-1,-1,-1,-1,-1,-1,-1,-1,-1,-1,-1,-1,-1,-1,-1,-1,-1,-1,-1,-1,-1,-1],"split_conditions":[2.85E1,3.095E1,2.7349998E1,-1.65401E-1,-7.473321E-2,-1.0454743E-1,1.0404497E-2,5.9759464E-2,-8.4503956E-2,-1.3542214E-1,-3.7270337E-2,-3.862382E-2,1.9434793E-2,-1.0032463E-1,-1.1286346E-2,-1.01291075E-1,5.1887374E-2,-7.013669E-4,-9.962858E-2,-6.9271186E-3,4.3313067E-2,5.636587E-3,-1.0989771E-1,-5.548767E-2,8.1529446E-2,-6.0962148E-2,2.6584983E-2,6.508359E-2,-1.7260116E-2,2.8051406E-2,9.4882354E-2,-8.5708074E-2,-1.3096763E-1,2.6491806E-2,-8.986669E-2,7.414919E-2,-2.9885901E-2,-5.0038785E-2,2.3171984E-2,3.2441344E-3,7.275501E-2,2.0108059E-2,1.1441102E-1],"split_indices":[5,3,3,0,3,5,5,2147483647,2147483647,2147483647,2147483647,2147483647,2147483647,2147483647,2147483647,2147483647,2147483647,2147483647,2147483647,2147483647,2147483647,2147483647,2147483647,2147483647,2147483647,2147483647,2147483647,2147483647,2147483647,2147483647,2147483647,2147483647,2147483647,2147483647,2147483647,2147483647,2147483647,2147483647,2147483647,2147483647,2147483647,2147483647,2147483647],"split_type":[0,0,0,0,0,0,0,0,0,0,0,0,0,0,0,0,0,0,0,0,0,0,0,0,0,0,0,0,0,0,0,0,0,0,0,0,0,0,0,0,0,0,0],"sum_hessian":[1.2322023E2,6.145153E1,6.17687E1,3.0592453E1,3.0859077E1,1.0442831E1,5.132587E1,1.7435288E0,2.911555E1,6.4636445E0,3.9791868E0,7.473381E0,4.385249E1,2.3637743E1,5.4778066E0,2.23688E0,1.7423067E0,5.232311E0,2.2410703E0,2.117972E1,2.267277E1,1.9926782E0,2.1645063E1,3.9831161E0,1.4946904E0,1.2461272E0,3.9861834E0,1.9928589E0,1.9186861E1,1.868654E1,3.9862292E0,1.2435773E1,9.2092905E0,1.2446264E0,2.7384899E0,1.9937983E0,1.9923851E0,1.0465105E1,8.721756E0,1.2707413E1,5.979127E0,1.2457986E0,2.7404306E0],"tree_param":{"num_deleted":"36","num_feature":"6","num_nodes":"43","size_leaf_vector":"0"}},{"base_weights":[-6.052778E-1,-1.0455543E0,-1.0007788E-2,-1.1880363E0,-6.754033E-1,-5.180254E-1,2.1399227E-1,-1.2740815E0,-2.9692546E-1,-1.2238467E0,-2.2956564E-1,-6.796984E-1,2.871909E-1,-3.559369E-2,4.931225E-1,-1.4467081E0,-1.0710083E0,3.281914E-1,-5.432746E-1,-1.11509115E-1,-1.3737015E0,4.8699588E-1,-4.5872238E-1,2.7891992E-2,-8.325836E-1,3.1910738E-1,-5.435419E-1,6.410118E-1,-5.673029E-2,-2.9815573E-1,-1.1340953E0,-9.454143E-1,2.7744484E-1,-1.5417807E0,-5.4858506E-1,-7.1004826E-1,4.254117E-1,-2.1112187E-1,2.5427184E-1,-3.9891034E-1,-1.1494228E0,-2.7673104E-1,5.44753E-1,-9.378487E-1,4.4294557E-1,8.862477E-2,8.297952E-1,-8.0555356E-1,6.4580363E-1,-1.2678418E0,-7.737394E-1,-2.701801E-1,-1.0231478E0,-7.7812713E-1,6.589236E-1,-3.583356E-1,-1.3230435E0,-7.6861686E-1,3.7240145E-1,1.0419608E0,1.3591406E-1,-1.1470842E0,-2.919397E-1,9.543061E-1,-8.90153E-1,4.3112874E-1,1.4306526E0],"categories":[],"categories_nodes":[],"categories_segments":[],"categories_sizes":[],"default_left":[1,1,1,1,1,1,1,1,1,1,1,1,1,1,1,1,1,1,1,1,1,1,1,1,1,1,1,1,1,1,1,1,1,1,1,1,1,1,1,1,1,1,1,1,1,1,1,1,1,1,1,1,1,1,1,1,1,1,1,1,1,1,1,1,1,1,1],"id":2,"left_children":[1,-1,-1,-1,-1,-1,-1,-1,-1,-1,-1,-1,-1,-1,-1,-1,-1,-1,-1,-1,-1,-1,-1,-1,-1,-1,-1,-1,-1,-1,-1,-1,-1,-1,-1,-1,-1,-1,-1,-1,-1,-1,-1,-1,-1,-1,-1,-1,-1,-1,-1,-1,-1,-1,-1,-1,-1,-1,-1,-1,-1,-1,-1,-1,-1,-1,-1],"loss_changes":[3.2337814E1,2.9390106E0,6.1974015E0,3.4482727E0,5.1069603E0,2.3639526E0,2.6528525E0,3.5354614E-2,1.0558379E0,1.4553099E0,2.4213312E0,1.5562215E0,0E0,3.9395564E0,1.4938965E0,0E0,8.623924E-1,0E0,1.7356718E0,0E0,3.213215E-1,0E0,2.670082E0,2.4226941E-1,1.1471148E0,1.8902863E0,3.9025247E0,1.4079075E0,3.0021183E0,0E0,9.89933E-2,0E0,0E0,0E0,0E0,9.1799355E-1,0E0,0E0,0E0,3.1060226E0,3.803215E-1,1.6327304E0,1.8345063E0,5.7405853E-1,0E0,4.864068E0,1.8907738E0,0E0,0E0,0E0,0E0,0E0,0E0,0E0,0E0,0E0,0E0,0E0,0E0,0E0,0E0,0E0,0E0,0E0,0E0,0E0,0E0],"parents":[2147483647,0,0,1,1,2,2,3,3,4,4,5,5,6,6,7,7,8,8,9,9,10,10,11,11,13,13,14,14,16,16,18,18,20,20,22,22,23,23,24,24,25,25,26,26,27,27,28,28,30,30,35,35,39,39,40,40,41,41,42,42,43,43,45,45,46,46],"right_children":[2,-1,-1,-1,-1,-1,-1,-1,-1,-1,-1,-1,-1,-1,-1,-1,-1,-1,-1,-1,-1,-1,-1,-1,-1,-1,-1,-1,-1,-1,-1,-1,-1,-1,-1,-1,-1,-1,-1,-1,-1,-1,-1,-1,-1,-1,-1,-1,-1,-1,-1,-1,-1,-1,-1,-1,-1,-1,-1,-1,-1,-1,-1,-1,-1,-1,-1],"split_conditions":[3.05E1,-1.0455543E-1,-1.0007789E-3,-1.18803635E-1,-6.754033E-2,-5.1802542E-2,2.1399228E-2,-1.2740815E-1,-2.9692546E-2,-1.2238467E-1,-2.2956563E-2,-6.7969844E-2,2.8719092E-2,-3.559369E-3,4.931225E-2,-1.4467081E-1,-1.0710084E-1,3.281914E-2,-5.432746E-2,-1.1150911E-2,-1.3737015E-1,4.8699588E-2,-4.5872238E-2,2.7891991E-3,-8.325836E-2,3.191074E-2,-5.435419E-2,6.410118E-2,-5.673029E-3,-2.9815573E-2,-1.13409534E-1,-9.454143E-2,2.7744485E-2,-1.5417807E-1,-5.4858506E-2,-7.100483E-2,4.2541172E-2,-2.1112187E-2,2.5427183E-2,-3.9891034E-2,-1.14942275E-1,-2.7673105E-2,5.4475304E-2,-9.378487E-2,4.429456E-2,8.862477E-3,8.297952E-2,-8.055536E-2,6.4580366E-2,-1.2678419E-1,-7.7373944E-2,-2.701801E-2,-1.02314785E-1,-7.781272E-2,6.589236E-2,-3.5833564E-2,-1.3230436E-1,-7.686169E-2,3.7240144E-2,1.0419609E-1,1.3591406E-2,-1.1470842E-1,-2.9193971E-2,9.543061E-2,-8.90153E-2,4.3112874E-2,1.4306526E-1],"split_indices":[5,5,4,2147483647,2147483647,2147483647,2147483647,2147483647,2147483647,2147483647,2147483647,2147483647,2147483647,2147483647,2147483647,2147483647,2147483647,2147483647,2147483647,2147483647,2147483647,2147483647,2147483647,2147483647,2147483647,2147483647,2147483647,2147483647,2147483647,2147483647,2147483647,2147483647,2147483647,2147483647,2147483647,2147483647,2147483647,2147483647,2147483647,2147483647,2147483647,2147483647,2147483647,2147483647,2147483647,2147483647,2147483647,2147483647,2147483647,2147483647,2147483647,2147483647,2147483647,2147483647,2147483647,2147483647,2147483647,2147483647,2147483647,2147483647,2147483647,2147483647,2147483647,2147483647,2147483647,2147483647,2147483647],"split_type":[0,0,0,0,0,0,0,0,0,0,0,0,0,0,0,0,0,0,0,0,0,0,0,0,0,0,0,0,0,0,0,0,0,0,0,0,0,0,0,0,0,0,0,0,0,0,0,0,0,0,0,0,0,0,0,0,0,0,0,0,0,0,0,0,0,0,0],"sum_hessian":[1.2242743E2,6.994093E1,5.2486496E1,4.890598E1,2.1034952E1,1.5659394E1,3.6827103E1,4.4207558E1,4.6984215E0,8.6496315E0,1.2385321E1,1.3170812E1,2.4885826E0,1.9903107E1,1.6923998E1,2.0584873E1,2.3622684E1,1.2342534E0,3.464168E0,1.2340062E0,7.4156256E0,2.7284453E0,9.656875E0,2.4853876E0,1.0685425E1,1.1938326E1,7.964781E0,1.3206239E1,3.7177587E0,2.2149072E0,2.1407778E1,2.2229996E0,1.2411686E0,5.4390993E0,1.9765258E0,7.672713E0,1.9841623E0,1.2417436E0,1.2436441E0,5.46468E0,5.220744E0,3.2170382E0,8.721288E0,5.7255416E0,2.239239E0,3.7380428E0,9.468196E0,1.728611E0,1.9891478E0,1.3776362E1,7.631415E0,3.9651136E0,3.707599E0,4.2172704E0,1.24741E0,1.4910067E0,3.7297373E0,1.7254758E0,1.4915624E0,3.2365658E0,5.484721E0,3.7385535E0,1.9869881E0,1.9968915E0,1.7411512E0,6.7242236E0,2.7439718E0],"tree_param":{"num_deleted":"64","num_feature":"6","num_nodes":"67","size_leaf_vector":"0"}},{"base_weights":[-5.504246E-1,-1.057262E0,4.9664152E-1,-1.3707693E0,-6.4406735E-1,-3.6047667E-2,1.2073909E0,-1.5188925E0,-6.460211E-1,-1.4133017E0,-3.881505E-1,-9.7558117E-1,2.6692927E-1,5.961619E-1,1.4928136E0,-8.403785E-1,3.74045E-1,-9.568458E-2,-7.147328E-1,-1.1359631E0,-2.803099E-1,4.2638877E-1,-8.4219587E-1,7.8126353E-1,-1.6170149E-1,-3.3514977E-1,-1.1672081E0,-3.7479913E-1,4.101666E-1,-8.383117E-1,3.010078E-1,8.431462E-1,1.3635972E-1,2.1143322E-1,9.6462256E-1,3.9592424E-1,-7.0670635E-1,-8.7311846E-1,3.6023203E-2,8.3801115E-1,-1.54119E-2,-2.6265877E-1,-1.0257013E0,-1.3381982E-1,1.4117709E0,-5.8659816E-1,3.500085E-1,1.2589043E0,1.42283E-1],"categories":[],"categories_nodes":[],"categories_segments":[],"categories_sizes":[],"default_left":[1,1,1,1,1,1,1,1,1,1,1,1,1,1,1,1,1,1,1,1,1,1,1,1,1,1,1,1,1,1,1,1,1,1,1,1,1,1,1,1,1,1,1,1,1,1,1,1,1],"id":3,"left_children":[1,3,5,-1,-1,-1,-1,-1,-1,-1,-1,-1,-1,-1,-1,-1,-1,-1,-1,-1,-1,-1,-1,-1,-1,-1,-1,-1,-1,-1,-1,-1,-1,-1,-1,-1,-1,-1,-1,-1,-1,-1,-1,-1,-1,-1,-1,-1,-1],"loss_changes":[6.5500534E1,9.845612E0,1.5420769E1,3.9788895E0,6.856475E0,7.145305E0,2.1505985E0,0E0,2.2138078E0,0E0,2.7592225E0,3.631835E-1,3.7325535E0,1.1381466E0,0E0,9.88502E-1,0E0,2.5218282E0,1.9885526E0,0E0,0E0,1.9809899E0,0E0,4.196434E-1,0E0,1.5523617E0,0E0,2.3511539E0,1.1857592E0,1.0892992E0,0E0,4.0346546E0,1.9688811E0,0E0,8.4567404E-1,0E0,0E0,0E0,0E0,0E0,0E0,0E0,0E0,0E0,0E0,0E0,0E0,0E0,0E0],"parents":[2147483647,0,0,1,1,2,2,3,3,4,4,5,5,6,6,8,8,10,10,11,11,12,12,13,13,15,15,17,17,18,18,21,21,23,23,25,25,27,27,28,28,29,29,31,31,32,32,34,34],"right_children":[2,4,6,-1,-1,-1,-1,-1,-1,-1,-1,-1,-1,-1,-1,-1,-1,-1,-1,-1,-1,-1,-1,-1,-1,-1,-1,-1,-1,-1,-1,-1,-1,-1,-1,-1,-1,-1,-1,-1,-1,-1,-1,-1,-1,-1,-1,-1,-1],"split_conditions":[1.285E2,1.065E2,1.545E2,-1.3707693E-1,-6.440674E-2,-3.6047667E-3,1.20739095E-1,-1.5188925E-1,-6.4602114E-2,-1.4133017E-1,-3.881505E-2,-9.755812E-2,2.6692927E-2,5.961619E-2,1.4928137E-1,-8.4037855E-2,3.7404504E-2,-9.568458E-3,-7.1473286E-2,-1.1359631E-1,-2.803099E-2,4.263888E-2,-8.421959E-2,7.8126356E-2,-1.617015E-2,-3.3514977E-2,-1.1672081E-1,-3.7479915E-2,4.101666E-2,-8.383117E-2,3.0100781E-2,8.431462E-2,1.36359725E-2,2.1143323E-2,9.646226E-2,3.9592426E-2,-7.0670635E-2,-8.731185E-2,3.6023203E-3,8.380111E-2,-1.5411901E-3,-2.6265878E-2,-1.0257013E-1,-1.3381982E-2,1.411771E-1,-5.8659818E-2,3.500085E-2,1.2589043E-1,1.4228299E-2],"split_indices":[1,1,1,3,3,3,1,2147483647,2147483647,2147483647,2147483647,2147483647,2147483647,2147483647,2147483647,2147483647,2147483647,2147483647,2147483647,2147483647,2147483647,2147483647,2147483647,2147483647,2147483647,2147483647,2147483647,2147483647,2147483647,2147483647,2147483647,2147483647,2147483647,2147483647,2147483647,2147483647,2147483647,2147483647,2147483647,2147483647,2147483647,2147483647,2147483647,2147483647,2147483647,2147483647,2147483647,2147483647,2147483647],"split_type":[0,0,0,0,0,0,0,0,0,0,0,0,0,0,0,0,0,0,0,0,0,0,0,0,0,0,0,0,0,0,0,0,0,0,0,0,0,0,0,0,0,0,0,0,0,0,0,0,0],"sum_hessian":[1.2143528E2,8.182012E1,3.961516E1,4.520431E1,3.6615807E1,2.3186632E1,1.642853E1,3.662349E1,8.580823E0,8.011712E0,2.8604095E1,5.112561E0,1.8074072E1,6.2127347E0,1.0215795E1,7.355502E0,1.2253207E0,1.5772371E1,1.2831725E1,3.6392372E0,1.4733241E0,1.634037E1,1.7337009E0,4.968375E0,1.2443595E0,3.684808E0,3.670694E0,1.0331056E1,5.4413157E0,1.1595635E1,1.2360895E0,5.922673E0,1.0417698E1,1.733679E0,3.2346961E0,1.2195808E0,2.4652274E0,4.1598935E0,6.171162E0,2.2301652E0,3.2111504E0,3.4374876E0,8.158148E0,2.460278E0,3.462395E0,1.9781823E0,8.439515E0,1.9912333E0,1.2434628E0],"tree_param":{"num_deleted":"42","num_feature":"6","num_nodes":"49","size_leaf_vector":"0"}},{"base_weights":[-5.0305337E-1,-9.716744E-1,4.5136E-1,-1.2701775E0,-5.856883E-1,9.101518E-2,1.393401E0,-1.3374771E0,-2.6965338E-1,-8.138076E-1,2.596561E-1,-4.5533082E-1,4.4884223E-1,4.9870628E-1,-7.5162303E-1,-1.1450024E0,-6.557006E-1,6.407464E-1,-2.936189E-1,2.4348736E-1,-9.339269E-1,2.01532E-1,8.195721E-1,-2.9997122E-1,-8.513347E-1,1.0529628E-1,1.2354585E0,-8.5332745E-1,4.38906E-1,-4.4970098E-1,9.645358E-1,-1.2240297E0,3.1698287E-1,8.428351E-1,-1.5745975E-2,1.1981966E0,2.1257333E-1,3.8748765E-1,-4.479345E-1,-2.1562915E-1,-9.083033E-1,4.7501972E-1,-3.0730847E-1,-5.978433E-1,-8.475757E-2,-2.6191175E-1,6.1640203E-1,6.577393E-1,-2.2875966E-1],"categories":[],"categories_nodes":[],"categories_segments":[],"categories_sizes":[],"default_left":[1,1,1,1,1,1,0,1,1,1,1,1,1,1,1,1,1,1,1,1,1,1,1,1,1,1,1,1,1,1,1,1,1,1,1,1,1,1,1,1,1,1,1,1,1,1,1,1,1],"id":4,"left_children":[1,3,5,-1,-1,-1,-1,-1,-1,-1,-1,-1,-1,-1,-1,-1,-1,-1,-1,-1,-1,-1,-1,-1,-1,-1,-1,-1,-1,-1,-1,-1,-1,-1,-1,-1,-1,-1,-1,-1,-1,-1,-1,-1,-1,-1,-1,-1,-1],"loss_changes":[5.450762E1,8.634453E0,1.36189995E1,2.6724014E0,7.41434E0,6.139562E0,0E0,0E0,1.8900082E0,8.021698E-1,2.0216265E0,4.411783E0,1.5629382E0,0E0,0E0,0E0,1.3044672E0,1.6096616E0,2.109828E0,3.3720846E0,3.1577463E0,1.7734504E0,1.4037318E0,1.1395817E0,3.0814934E-1,7.5130963E-1,0E0,0E0,0E0,1.4824426E-1,0E0,0E0,0E0,0E0,1.7824733E0,0E0,9.3391675E-1,0E0,0E0,0E0,0E0,0E0,0E0,0E0,0E0,0E0,0E0,0E0,0E0],"parents":[2147483647,0,0,1,1,2,2,3,3,4,4,5,5,8,8,9,9,10,10,11,11,12,12,16,16,17,17,18,18,19,19,20,20,21,21,22,22,23,23,24,24,25,25,29,29,34,34,36,36],"right_children":[2,4,6,-1,-1,-1,-1,-1,-1,-1,-1,-1,-1,-1,-1,-1,-1,-1,-1,-1,-1,-1,-1,-1,-1,-1,-1,-1,-1,-1,-1,-1,-1,-1,-1,-1,-1,-1,-1,-1,-1,-1,-1,-1,-1,-1,-1,-1,-1],"split_conditions":[1.285E2,1.065E2,1.655E2,-1.2701775E-1,-5.856883E-2,9.101518E-3,1.393401E-1,-1.3374771E-1,-2.6965339E-2,-8.138076E-2,2.596561E-2,-4.5533083E-2,4.4884223E-2,4.987063E-2,-7.516231E-2,-1.1450024E-1,-6.5570064E-2,6.407464E-2,-2.9361889E-2,2.4348736E-2,-9.339269E-2,2.01532E-2,8.195721E-2,-2.9997123E-2,-8.513347E-2,1.0529628E-2,1.2354585E-1,-8.5332744E-2,4.3890603E-2,-4.49701E-2,9.645358E-2,-1.22402966E-1,3.1698287E-2,8.4283516E-2,-1.5745976E-3,1.1981966E-1,2.1257333E-2,3.8748767E-2,-4.4793453E-2,-2.1562915E-2,-9.083033E-2,4.7501974E-2,-3.0730847E-2,-5.978433E-2,-8.475757E-3,-2.6191175E-2,6.1640203E-2,6.577393E-2,-2.2875967E-2],"split_indices":[1,1,1,2,0,0,0,2147483647,2147483647,2147483647,2147483647,2147483647,2147483647,2147483647,2147483647,2147483647,2147483647,2147483647,2147483647,2147483647,2147483647,2147483647,2147483647,2147483647,2147483647,2147483647,2147483647,2147483647,2147483647,2147483647,2147483647,2147483647,2147483647,2147483647,2147483647,2147483647,2147483647,2147483647,2147483647,2147483647,2147483647,2147483647,2147483647,2147483647,2147483647,2147483647,2147483647,2147483647,2147483647],"split_type":[0,0,0,0,0,0,0,0,0,0,0,0,0,0,0,0,0,0,0,0,0,0,0,0,0,0,0,0,0,0,0,0,0,0,0,0,0,0,0,0,0,0,0,0,0,0,0,0,0],"sum_hessian":[1.1989003E2,8.039678E1,3.9493248E1,4.4044304E1,3.6352478E1,2.9359438E1,1.0133809E1,4.0952858E1,3.091446E0,2.8656673E1,7.695805E0,1.1511178E1,1.7848259E1,1.1782868E0,1.9131591E0,7.242821E0,2.1413853E1,4.463377E0,3.2324278E0,4.8787527E0,6.6324253E0,1.1632165E1,6.216094E0,8.496906E0,1.2916946E1,2.9680984E0,1.4952788E0,1.7388741E0,1.4935538E0,2.6792998E0,2.1994529E0,5.4012833E0,1.231142E0,2.2151153E0,9.41705E0,3.2283766E0,2.9877174E0,1.2181934E0,7.278713E0,1.4558911E0,1.1461055E1,1.4856124E0,1.4824859E0,1.4517905E0,1.2275094E0,7.199256E0,2.2177942E0,1.2432864E0,1.7444311E0],"tree_param":{"num_deleted":"42","num_feature":"6","num_nodes":"49","size_leaf_vector":"0"}},{"base_weights":[-4.6082538E-1,-9.2535394E-1,-1.0571171E-2,-1.1766434E0,-7.47922E-1,-2.5561023E-1,2.1277115E-1,-1.2592472E0,-2.7255693E-1,-4.4133216E-2,-7.99015E-1,2.9967996E-1,-5.405976E-1,7.8625363E-1,1.1441756E-1,-1.610578E-1,1.0920273E-1,-3.212451E-1,-8.7336606E-1,-4.333189E-1,6.9430804E-1,-6.3442874E-1,-1.24197446E-1,-1.0285379E-2,1.0689571E0,-1.5486729E-1,3.8942403E-1,5.811458E-1,-7.1554106E-1,-1.3080596E0,-6.774599E-1,-7.6518834E-1,1.3821344E-1,9.866316E-1,1.3780224E-1,-4.2132637E-1,-1.0343064E0,6.4231706E-1,-5.560175E-1,-3.5925892E-1,3.5451415E-1,5.547792E-1,-4.6266815E-1,4.10728E-2,-1.133937E0,-2.6070189E-2,-7.606909E-1,2.6377314E-1,1.1658688E0,3.8024542E-1,-1.9363704E-1,-5.67962E-1,3.8398585E-1,-1.2594936E0,-3.0497825E-1,2.4938385E-1,-7.066157E-1,-1.5442632E-1,6.7619157E-1,-1.2666115E-1,8.16013E-1],"categories":[],"categories_nodes":[],"categories_segments":[],"categories_sizes":[],"default_left":[1,1,1,1,1,1,1,1,1,1,1,1,1,1,1,1,1,1,1,1,1,1,1,1,1,1,1,1,1,1,1,1,1,1,1,1,1,1,1,1,1,1,1,1,1,1,1,1,1,1,1,1,1,1,1,1,1,1,1,1,1],"id":5,"left_children":[1,-1,-1,-1,-1,-1,-1,-1,-1,-1,-1,-1,-1,-1,-1,-1,-1,-1,-1,-1,-1,-1,-1,-1,-1,-1,-1,-1,-1,-1,-1,-1,-1,-1,-1,-1,-1,-1,-1,-1,-1,-1,-1,-1,-1,-1,-1,-1,-1,-1,-1,-1,-1,-1,-1,-1,-1,-1,-1,-1,-1],"loss_changes":[2.488596E1,1.7316132E0,3.4176714E0,1.3369007E0,1.297987E0,4.871293E0,1.7542609E0,0E0,0E0,8.155733E-2,9.4529915E-1,3.4064229E0,7.034993E-1,1.0505185E0,2.2138526E0,0E0,0E0,2.6321726E0,1.6073246E0,9.352026E-1,1.0618804E0,9.359002E-1,1.9874566E0,0E0,0E0,1.7315886E0,2.323908E0,0E0,1.560724E0,0E0,1.1869144E0,0E0,0E0,2.9689646E-1,3.707917E-1,1.657345E0,4.2206192E-1,0E0,0E0,2.605997E0,9.0917695E-1,2.3716466E0,0E0,0E0,0E0,0E0,0E0,0E0,0E0,0E0,0E0,0E0,0E0,0E0,0E0,0E0,0E0,0E0,0E0,0E0,0E0],"parents":[2147483647,0,0,1,1,2,2,3,3,4,4,5,5,6,6,9,9,10,10,11,11,12,12,13,13,14,14,17,17,18,18,19,19,20,20,21,21,22,22,25,25,26,26,28,28,30,30,33,33,34,34,35,35,36,36,39,39,40,40,41,41],"right_children":[2,-1,-1,-1,-1,-1,-1,-1,-1,-1,-1,-1,-1,-1,-1,-1,-1,-1,-1,-1,-1,-1,-1,-1,-1,-1,-1,-1,-1,-1,-1,-1,-1,-1,-1,-1,-1,-1,-1,-1,-1,-1,-1,-1,-1,-1,-1,-1,-1,-1,-1,-1,-1,-1,-1,-1,-1,-1,-1,-1,-1],"split_conditions":[2.85E1,-9.25354E-2,-1.0571171E-3,-1.1766434E-1,-7.47922E-2,-2.5561024E-2,2.1277115E-2,-1.2592472E-1,-2.7255693E-2,-4.4133216E-3,-7.99015E-2,2.9967997E-2,-5.4059763E-2,7.8625366E-2,1.1441756E-2,-1.610578E-2,1.0920273E-2,-3.2124512E-2,-8.733661E-2,-4.333189E-2,6.9430806E-2,-6.344288E-2,-1.2419744E-2,-1.028538E-3,1.0689571E-1,-1.5486729E-2,3.8942404E-2,5.8114585E-2,-7.155411E-2,-1.3080595E-1,-6.774599E-2,-7.651883E-2,1.3821344E-2,9.866316E-2,1.3780224E-2,-4.213264E-2,-1.0343064E-1,6.423171E-2,-5.5601753E-2,-3.592589E-2,3.5451416E-2,5.5477917E-2,-4.6266817E-2,4.10728E-3,-1.133937E-1,-2.607019E-3,-7.6069094E-2,2.6377315E-2,1.1658688E-1,3.802454E-2,-1.9363705E-2,-5.67962E-2,3.8398586E-2,-1.2594937E-1,-3.0497825E-2,2.4938386E-2,-7.066157E-2,-1.5442632E-2,6.761916E-2,-1.2666116E-2,8.16013E-2],"split_indices":[5,5,0,2147483647,2147483647,2147483647,2147483647,2147483647,2147483647,2147483647,2147483647,2147483647,2147483647,2147483647,2147483647,2147483647,2147483647,2147483647,2147483647,2147483647,2147483647,2147483647,2147483647,2147483647,2147483647,2147483647,2147483647,2147483647,2147483647,2147483647,2147483647,2147483647,2147483647,2147483647,2147483647,2147483647,2147483647,2147483647,2147483647,2147483647,2147483647,2147483647,2147483647,2147483647,2147483647,2147483647,2147483647,2147483647,2147483647,2147483647,2147483647,2147483647,2147483647,2147483647,2147483647,2147483647,2147483647,2147483647,2147483647,2147483647,2147483647],"split_type":[0,0,0,0,0,0,0,0,0,0,0,0,0,0,0,0,0,0,0,0,0,0,0,0,0,0,0,0,0,0,0,0,0,0,0,0,0,0,0,0,0,0,0,0,0,0,0,0,0,0,0,0,0,0,0,0,0,0,0,0,0],"sum_hessian":[1.1802958E2,5.7574562E1,6.0455013E1,2.1497301E1,3.6077263E1,2.875839E1,3.1696623E1,1.9337637E1,2.1596637E0,2.5679796E0,3.350928E1,9.736172E0,1.9022219E1,3.6163232E0,2.80803E1,1.4284059E0,1.1395737E0,5.2290115E0,2.828027E1,3.3729913E0,6.36318E0,1.5096736E1,3.9254832E0,1.1996982E0,2.416625E0,1.4408466E1,1.3671834E1,1.4459375E0,3.783074E0,7.022089E0,2.125818E1,1.9195421E0,1.4534492E0,3.6650724E0,2.6981075E0,1.118805E1,3.9086862E0,1.2388906E0,2.6865926E0,1.0492869E1,3.9155967E0,1.1742107E1,1.9297265E0,1.6681954E0,2.1148787E0,2.5572946E0,1.8700888E1,1.2193025E0,2.44577E0,1.4732158E0,1.2248917E0,9.714003E0,1.4740475E0,2.4311283E0,1.4775578E0,3.915004E0,6.5778656E0,1.7177695E0,2.197827E0,3.3967288E0,8.345379E0],"tree_param":{"num_deleted":"58","num_feature":"6","num_nodes":"61","size_leaf_vector":"0"}},{"base_weights":[-4.2078838E-1,-8.5499287E-1,-9.5318565E-3,-1.1162454E0,-6.7333156E-1,-2.5460768E-1,2.1380556E-1,-1.2026377E0,-2.1186006E-1,2.2067789E-2,-7.255922E-1,3.0065578E-1,-5.396366E-1,7.871783E-1,1.15441926E-1,-1.0846193E-1,1.6023333E-1,-2.4804679E-1,-8.02531E-1,-4.3255877E-1,6.9522697E-1,-6.3349277E-1,-1.23359896E-1,-9.709945E-3,1.0698068E0,-1.5388443E-1,3.9041826E-1,6.410004E-1,-6.531839E-1,-1.2532274E0,-6.0302246E-1,-7.645946E-1,1.3884935E-1,9.8747295E-1,1.385737E-1,-4.2038843E-1,-1.0335634E0,6.428933E-1,-5.552813E-1,-3.583155E-1,3.5534677E-1,5.557542E-1,-4.620231E-1,9.9531464E-2,-1.0873996E0,4.0363632E-2,-6.882851E-1,2.6435912E-1,1.1666217E0,3.8087037E-1,-1.9305818E-1,-5.670546E-1,3.8461167E-1,-1.2588707E0,-3.043632E-1,2.502315E-1,-7.0575243E-1,-1.5376042E-1,6.768818E-1,-1.2585066E-1,8.169398E-1],"categories":[],"categories_nodes":[],"categories_segments":[],"categories_sizes":[],"default_left":[1,1,1,1,1,1,1,1,1,1,1,1,1,1,1,1,1,1,1,1,1,1,1,1,1,1,1,1,1,1,1,1,1,1,1,1,1,1,1,1,1,1,1,1,1,1,1,1,1,1,1,1,1,1,1,1,1,1,1,1,1],"id":6,"left_children":[1,-1,-1,-1,-1,-1,-1,-1,-1,-1,-1,-1,-1,-1,-1,-1,-1,-1,-1,-1,-1,-1,-1,-1,-1,-1,-1,-1,-1,-1,-1,-1,-1,-1,-1,-1,-1,-1,-1,-1,-1,-1,-1,-1,-1,-1,-1,-1,-1,-1,-1,-1,-1,-1,-1,-1,-1,-1,-1,-1,-1],"loss_changes":[2.1006939E1,1.9647179E0,3.4179497E0,1.460556E0,1.3344994E0,4.87164E0,1.753101E0,0E0,0E0,8.0616415E-2,1.0418339E0,3.4065804E0,7.040601E-1,1.049964E0,2.2136517E0,0E0,0E0,2.6279566E0,1.8195114E0,9.3573636E-1,1.0609927E0,9.3773746E-1,1.9870653E0,0E0,0E0,1.7313302E0,2.3245592E0,0E0,1.6472778E0,0E0,1.2225342E0,0E0,0E0,2.9592276E-1,3.7068486E-1,1.6569834E0,4.232378E-1,0E0,0E0,2.606412E0,9.087617E-1,2.371227E0,0E0,0E0,0E0,0E0,0E0,0E0,0E0,0E0,0E0,0E0,0E0,0E0,0E0,0E0,0E0,0E0,0E0,0E0,0E0],"parents":[2147483647,0,0,1,1,2,2,3,3,4,4,5,5,6,6,9,9,10,10,11,11,12,12,13,13,14,14,17,17,18,18,19,19,20,20,21,21,22,22,25,25,26,26,28,28,30,30,33,33,34,34,35,35,36,36,39,39,40,40,41,41],"right_children":[2,-1,-1,-1,-1,-1,-1,-1,-1,-1,-1,-1,-1,-1,-1,-1,-1,-1,-1,-1,-1,-1,-1,-1,-1,-1,-1,-1,-1,-1,-1,-1,-1,-1,-1,-1,-1,-1,-1,-1,-1,-1,-1,-1,-1,-1,-1,-1,-1,-1,-1,-1,-1,-1,-1,-1,-1,-1,-1,-1,-1],"split_conditions":[2.85E1,-8.549929E-2,-9.5318566E-4,-1.1162454E-1,-6.7333154E-2,-2.5460768E-2,2.1380557E-2,-1.2026377E-1,-2.1186007E-2,2.2067789E-3,-7.255922E-2,3.006558E-2,-5.396366E-2,7.871783E-2,1.1544193E-2,-1.0846193E-2,1.6023334E-2,-2.480468E-2,-8.02531E-2,-4.3255877E-2,6.95227E-2,-6.334928E-2,-1.233599E-2,-9.7099453E-4,1.0698068E-1,-1.5388443E-2,3.904183E-2,6.410004E-2,-6.531839E-2,-1.2532274E-1,-6.0302246E-2,-7.645946E-2,1.3884935E-2,9.87473E-2,1.3857371E-2,-4.2038843E-2,-1.0335634E-1,6.428933E-2,-5.552813E-2,-3.5831552E-2,3.5534676E-2,5.557542E-2,-4.6202313E-2,9.953147E-3,-1.08739965E-1,4.036363E-3,-6.8828516E-2,2.6435912E-2,1.1666217E-1,3.8087036E-2,-1.9305818E-2,-5.6705464E-2,3.8461167E-2,-1.2588708E-1,-3.043632E-2,2.5023151E-2,-7.0575245E-2,-1.5376042E-2,6.768818E-2,-1.2585066E-2,8.169398E-2],"split_indices":[5,5,0,2147483647,2147483647,2147483647,2147483647,2147483647,2147483647,2147483647,2147483647,2147483647,2147483647,2147483647,2147483647,2147483647,2147483647,2147483647,2147483647,2147483647,2147483647,2147483647,2147483647,2147483647,2147483647,2147483647,2147483647,2147483647,2147483647,2147483647,2147483647,2147483647,2147483647,2147483647,2147483647,2147483647,2147483647,2147483647,2147483647,2147483647,2147483647,2147483647,2147483647,2147483647,2147483647,2147483647,2147483647,2147483647,2147483647,2147483647,2147483647,2147483647,2147483647,2147483647,2147483647,2147483647,2147483647,2147483647,2147483647,2147483647,2147483647],"split_type":[0,0,0,0,0,0,0,0,0,0,0,0,0,0,0,0,0,0,0,0,0,0,0,0,0,0,0,0,0,0,0,0,0,0,0,0,0,0,0,0,0,0,0,0,0,0,0,0,0,0,0,0,0,0,0,0,0,0,0,0,0],"sum_hessian":[1.166858E2,5.623448E1,6.045132E1,2.095452E1,3.527996E1,2.8756172E1,3.1695148E1,1.8826332E1,2.1281884E0,2.5064156E0,3.2773544E1,9.735557E0,1.9020615E1,3.6157568E0,2.8079391E1,1.3993694E0,1.1070462E0,5.13368E0,2.7639866E1,3.3724334E0,6.3631234E0,1.5095328E1,3.925287E0,1.1994576E0,2.416299E0,1.4407903E1,1.367149E1,1.4248209E0,3.7088587E0,6.860409E0,2.0779457E1,1.9191556E0,1.453278E0,3.6650212E0,2.698102E0,1.1187111E1,3.9082174E0,1.2389209E0,2.686366E0,1.0492175E1,3.915728E0,1.1742087E1,1.9294016E0,1.6387887E0,2.07007E0,2.4931233E0,1.8286333E1,1.219259E0,2.4457622E0,1.4732465E0,1.2248555E0,9.7130375E0,1.4740732E0,2.4307845E0,1.4774328E0,3.914893E0,6.577282E0,1.7177292E0,2.1979988E0,3.3965118E0,8.345576E0],"tree_param":{"num_deleted":"58","num_feature":"6","num_nodes":"61","size_leaf_vector":"0"}},{"base_weights":[-3.8451654E-1,-9.9485457E-1,-1.0363427E-1,-1.2044661E0,-2.6326233E-1,-4.6601322E-1,2.6513422E-1,-9.5477515E-1,1.3898791E-1,-5.7401633E-1,1.5546675E-1,8.303299E-1,1.5044965E-1,3.1692177E-1,-3.0940658E-1,-4.4188935E-1,-1.1629912E0,5.247517E-1,-2.6556894E-1,1.0894294E0,2.75664E-1,-3.4764644E-2,6.655857E-1,-1.5240191E-1,1.0427557E0,-7.523556E-1,-1.3315569E-1,1.24791235E-1,6.378753E-1,-4.809919E-1,8.438453E-3,-1.4272109E-1,5.705533E-1,-1.56234E-1,9.943184E-1,-2.554607E-1,1.0356542E0,4.6577957E-1,-5.577501E-1,-1.1870916E0,-1.675671E-1,4.591851E-1,-5.1611125E-1,-3.0540994E-1,1.7323977E-1,2.548936E-1,-6.525354E-1,1.1643519E0,2.3846391E-1],"categories":[],"categories_nodes":[],"categories_segments":[],"categories_sizes":[],"default_left":[1,1,1,1,1,1,1,1,1,1,1,1,1,1,1,1,1,1,1,1,1,1,1,1,1,1,1,1,1,1,1,1,1,1,1,1,1,1,1,1,1,1,1,1,1,1,1,1,1],"id":7,"left_children":[1,-1,5,-1,-1,-1,-1,-1,-1,-1,-1,-1,-1,-1,-1,-1,-1,-1,-1,-1,-1,-1,-1,-1,-1,-1,-1,-1,-1,-1,-1,-1,-1,-1,-1,-1,-1,-1,-1,-1,-1,-1,-1,-1,-1,-1,-1,-1,-1],"loss_changes":[1.9832159E1,5.285267E0,1.0914877E1,0E0,2.7518227E0,2.8474026E0,2.5106878E0,0E0,6.4266133E-1,2.2269802E0,1.2076313E0,6.535888E-1,3.3647416E0,1.9918752E0,0E0,2.8118253E0,0E0,1.0121274E-1,2.3275372E-1,0E0,5.073427E-1,3.4943383E0,3.4385362E0,1.2972543E0,0E0,3.597394E0,3.9680042E0,0E0,0E0,0E0,0E0,0E0,0E0,1.2696381E0,0E0,8.697585E-1,4.2417955E-1,0E0,0E0,0E0,0E0,0E0,0E0,0E0,0E0,0E0,0E0,0E0,0E0],"parents":[2147483647,0,0,1,1,2,2,4,4,5,5,6,6,8,8,9,9,10,10,11,11,12,12,13,13,15,15,17,17,18,18,20,20,21,21,22,22,23,23,25,25,26,26,33,33,35,35,36,36],"right_children":[2,-1,6,-1,-1,-1,-1,-1,-1,-1,-1,-1,-1,-1,-1,-1,-1,-1,-1,-1,-1,-1,-1,-1,-1,-1,-1,-1,-1,-1,-1,-1,-1,-1,-1,-1,-1,-1,-1,-1,-1,-1,-1,-1,-1,-1,-1,-1,-1],"split_conditions":[2.8849998E1,-9.948546E-2,3.05E1,-1.20446615E-1,-2.6326234E-2,-4.660132E-2,2.6513422E-2,-9.5477514E-2,1.3898792E-2,-5.7401635E-2,1.5546675E-2,8.303299E-2,1.5044965E-2,3.1692177E-2,-3.0940657E-2,-4.4188935E-2,-1.16299115E-1,5.2475173E-2,-2.6556894E-2,1.0894294E-1,2.7566401E-2,-3.4764644E-3,6.655857E-2,-1.52401915E-2,1.0427558E-1,-7.523556E-2,-1.3315569E-2,1.2479124E-2,6.3787535E-2,-4.809919E-2,8.438453E-4,-1.4272109E-2,5.705533E-2,-1.56234E-2,9.943184E-2,-2.5546072E-2,1.0356542E-1,4.6577957E-2,-5.5775013E-2,-1.1870916E-1,-1.6756712E-2,4.591851E-2,-5.1611125E-2,-3.0540993E-2,1.7323976E-2,2.548936E-2,-6.525354E-2,1.1643519E-1,2.3846392E-2],"split_indices":[3,0,5,2147483647,2147483647,3,0,2147483647,2147483647,2147483647,2147483647,2147483647,2147483647,2147483647,2147483647,2147483647,2147483647,2147483647,2147483647,2147483647,2147483647,2147483647,2147483647,2147483647,2147483647,2147483647,2147483647,2147483647,2147483647,2147483647,2147483647,2147483647,2147483647,2147483647,2147483647,2147483647,2147483647,2147483647,2147483647,2147483647,2147483647,2147483647,2147483647,2147483647,2147483647,2147483647,2147483647,2147483647,2147483647],"split_type":[0,0,0,0,0,0,0,0,0,0,0,0,0,0,0,0,0,0,0,0,0,0,0,0,0,0,0,0,0,0,0,0,0,0,0,0,0,0,0,0,0,0,0,0,0,0,0,0,0],"sum_hessian":[1.1528593E2,3.553308E1,7.975285E1,2.7117243E1,8.415836E0,4.0091904E1,3.9660946E1,2.5899096E0,5.8259273E0,3.4221188E1,5.8707147E0,5.637541E0,3.4023407E1,4.3807473E0,1.4451797E0,2.938043E1,4.840758E0,2.9963336E0,2.874381E0,3.1854246E0,2.4521163E0,2.5711494E1,8.311912E0,3.1402779E0,1.2404696E0,1.3932666E1,1.5447763E1,1.1243203E0,1.8720133E0,1.1863121E0,1.688069E0,1.227117E0,1.2249994E0,2.3755644E1,1.9558516E0,2.4711852E0,5.840726E0,1.1846014E0,1.9556766E0,7.400861E0,6.531805E0,5.98749E0,9.460274E0,1.6402235E1,7.353408E0,1.2380321E0,1.2331533E0,4.6323185E0,1.2084075E0],"tree_param":{"num_deleted":"44","num_feature":"6","num_nodes":"49","size_leaf_vector":"0"}},{"base_weights":[-3.5207656E-1,-8.341038E-1,-3.8140617E-2,-1.0441649E0,-1.0731265E-1,-2.1254368E-1,4.1924873E-1,-1.1803887E0,-6.6783714E-1,-8.97255E-1,2.2525473E-1,-2.6199302E-1,6.2612724E-1,1.4398146E-1,1.1285619E0,-1.0991623E0,-4.4704592E-1,4.0072453E-1,-3.9847758E-2,-1.161453E-1,-6.178153E-1,1.2016351E0,-1.0017651E-1,1.33624E0,2.2393991E-1,2.6276228E-1,-5.9965575E-1,6.442481E-1,3.218696E-2,3.7193596E-1,-6.056791E-1,-1.7730437E-1,9.355947E-1,5.463261E-2,-8.5353E-1,6.400295E-2,-9.63681E-1,-2.0487374E-3,-8.68897E-1,-2.779021E-1,3.555958E-1,-4.4697362E-1,3.9488626E-1,-1.0777395E0,-5.814394E-2,-7.418174E-1,2.4365722E-1],"categories":[],"categories_nodes":[],"categories_segments":[],"categories_sizes":[],"default_left":[1,1,1,1,1,1,1,1,1,1,1,1,1,1,1,1,1,1,1,1,1,1,1,1,1,1,1,1,1,1,1,1,1,1,1,1,1,1,1,1,1,1,1,1,1,1,1],"id":8,"left_children":[1,-1,-1,-1,-1,-1,-1,-1,-1,-1,-1,-1,-1,-1,-1,-1,-1,-1,-1,-1,-1,-1,-1,-1,-1,-1,-1,-1,-1,-1,-1,-1,-1,-1,-1,-1,-1,-1,-1,-1,-1,-1,-1,-1,-1,-1,-1],"loss_changes":[1.7341879E1,6.79389E0,5.718936E0,1.0047951E0,3.159422E0,2.3105013E0,3.7070765E0,0E0,6.132374E-1,0E0,4.216557E-1,2.5012634E0,0E0,4.1033564E0,7.1424246E-1,0E0,1.1711997E0,4.5835304E-1,1.2465142E0,2.5071104E0,2.2946754E0,0E0,1.969069E0,0E0,0E0,0E0,1.2864323E0,0E0,0E0,0E0,0E0,1.9878873E0,0E0,9.651827E-1,1.8208427E0,1.9530813E0,0E0,0E0,0E0,0E0,0E0,0E0,0E0,0E0,0E0,0E0,0E0],"parents":[2147483647,0,0,1,1,2,2,3,3,4,4,5,5,6,6,8,8,10,10,11,11,13,13,14,14,16,16,17,17,18,18,19,19,20,20,22,22,26,26,31,31,33,33,34,34,35,35],"right_children":[2,-1,-1,-1,-1,-1,-1,-1,-1,-1,-1,-1,-1,-1,-1,-1,-1,-1,-1,-1,-1,-1,-1,-1,-1,-1,-1,-1,-1,-1,-1,-1,-1,-1,-1,-1,-1,-1,-1,-1,-1,-1,-1,-1,-1,-1,-1],"split_conditions":[3.025E1,-8.341038E-2,-3.8140619E-3,-1.0441649E-1,-1.0731265E-2,-2.1254368E-2,4.1924875E-2,-1.1803887E-1,-6.678372E-2,-8.97255E-2,2.2525473E-2,-2.6199302E-2,6.261273E-2,1.43981455E-2,1.1285619E-1,-1.0991623E-1,-4.4704594E-2,4.0072452E-2,-3.984776E-3,-1.161453E-2,-6.1781533E-2,1.20163515E-1,-1.0017651E-2,1.33624E-1,2.2393992E-2,2.6276229E-2,-5.9965577E-2,6.442481E-2,3.218696E-3,3.7193596E-2,-6.056791E-2,-1.7730437E-2,9.355947E-2,5.463261E-3,-8.5353E-2,6.4002955E-3,-9.63681E-2,-2.0487374E-4,-8.688971E-2,-2.779021E-2,3.555958E-2,-4.4697363E-2,3.9488625E-2,-1.0777395E-1,-5.814394E-3,-7.418174E-2,2.4365721E-2],"split_indices":[3,0,0,2147483647,2147483647,2147483647,2147483647,2147483647,2147483647,2147483647,2147483647,2147483647,2147483647,2147483647,2147483647,2147483647,2147483647,2147483647,2147483647,2147483647,2147483647,2147483647,2147483647,2147483647,2147483647,2147483647,2147483647,2147483647,2147483647,2147483647,2147483647,2147483647,2147483647,2147483647,2147483647,2147483647,2147483647,2147483647,2147483647,2147483647,2147483647,2147483647,2147483647,2147483647,2147483647,2147483647,2147483647],"split_type":[0,0,0,0,0,0,0,0,0,0,0,0,0,0,0,0,0,0,0,0,0,0,0,0,0,0,0,0,0,0,0,0,0,0,0,0,0,0,0,0,0,0,0,0,0,0,0],"sum_hessian":[1.13809944E2,4.4234287E1,6.957566E1,3.3977306E1,1.0256981E1,5.0757195E1,1.8818462E1,2.337822E1,1.0599086E1,2.5357904E0,7.72119E0,4.8580425E1,2.1767685E0,1.4423887E1,4.394575E0,2.2416456E0,8.35744E0,4.3381863E0,3.3830037E0,3.5397705E1,1.3182723E1,1.9697396E0,1.2454147E1,3.1860204E0,1.2085546E0,1.3511721E0,7.006268E0,2.1616697E0,2.1765168E0,2.1563754E0,1.2266285E0,3.423816E1,1.1595435E0,3.620985E0,9.561738E0,1.1242477E1,1.21167E0,2.4890935E0,4.5171742E0,2.9203758E1,5.0344014E0,1.336723E0,2.2842622E0,7.182181E0,2.3795574E0,1.47908E0,9.763397E0],"tree_param":{"num_deleted":"44","num_feature":"6","num_nodes":"47","size_leaf_vector":"0"}},{"base_weights":[-3.2111487E-1,-7.6879686E-1,5.3580767E-1,-1.0771642E0,-3.9362532E-1,2.123551E-1,1.3593414E0,-1.2410841E0,-3.4543213E-1,-1.1783224E0,-1.5294419E-1,-5.0090134E-1,4.3376616E-1,-1.0504894E0,5.0187506E-2,-4.3184337E-1,6.9196886E-1,-9.142967E-1,4.3990672E-1,2.2511667E-1,1.0302094E0,-2.4358313E-1,6.509017E-1,-2.6263687E-1,-9.2677885E-1,1.1265192E0,-3.960717E-2,-1.1190959E0,-2.6468086E-1,4.054622E-1,-1.6273658E-1,1.9285938E-1,-6.373254E-1,-7.0174783E-1,-1.3187569E-2,-1.2157065E0,3.5575435E-2,-7.100163E-1,7.1827877E-1,-1.0739668E-1,5.785917E-1,-6.554676E-1,4.8437402E-1],"categories":[],"categories_nodes":[],"categories_segments":[],"categories_sizes":[],"default_left":[1,1,1,1,1,1,0,1,1,1,1,1,1,1,1,1,1,1,1,1,1,1,1,1,1,1,1,1,1,1,1,1,1,1,1,1,1,1,1,1,1,1,1],"id":9,"left_children":[1,3,5,-1,-1,-1,-1,-1,-1,-1,-1,-1,-1,-1,-1,-1,-1,-1,-1,-1,-1,-1,-1,-1,-1,-1,-1,-1,-1,-1,-1,-1,-1,-1,-1,-1,-1,-1,-1,-1,-1,-1,-1],"loss_changes":[4.4030785E1,8.263718E0,1.0261426E1,4.445984E0,6.515587E0,4.8953247E0,0E0,0E0,2.5139494E0,0E0,6.9630756E0,3.3118587E0,2.6479387E0,0E0,1.3244226E0,1.588799E0,2.3980136E0,4.3848944E-1,0E0,1.3546586E0,0E0,1.0104102E0,0E0,1.9294801E0,1.483139E0,0E0,2.4024565E0,0E0,0E0,1.2041926E0,2.4095287E0,0E0,0E0,0E0,0E0,0E0,0E0,0E0,0E0,0E0,0E0,0E0,0E0],"parents":[2147483647,0,0,1,1,2,2,3,3,4,4,5,5,8,8,10,10,11,11,12,12,14,14,15,15,16,16,17,17,19,19,21,21,23,23,24,24,26,26,29,29,30,30],"right_children":[2,4,6,-1,-1,-1,-1,-1,-1,-1,-1,-1,-1,-1,-1,-1,-1,-1,-1,-1,-1,-1,-1,-1,-1,-1,-1,-1,-1,-1,-1,-1,-1,-1,-1,-1,-1,-1,-1,-1,-1,-1,-1],"split_conditions":[1.285E2,1.065E2,1.655E2,-1.0771642E-1,-3.936253E-2,2.123551E-2,1.3593414E-1,-1.2410841E-1,-3.4543213E-2,-1.1783224E-1,-1.529442E-2,-5.0090134E-2,4.3376617E-2,-1.0504895E-1,5.0187507E-3,-4.3184336E-2,6.919689E-2,-9.142967E-2,4.399067E-2,2.2511667E-2,1.0302094E-1,-2.4358314E-2,6.509017E-2,-2.6263688E-2,-9.2677884E-2,1.1265192E-1,-3.960717E-3,-1.1190959E-1,-2.6468087E-2,4.054622E-2,-1.6273659E-2,1.9285938E-2,-6.373254E-2,-7.017478E-2,-1.3187568E-3,-1.2157065E-1,3.5575435E-3,-7.1001634E-2,7.182788E-2,-1.0739668E-2,5.785917E-2,-6.5546766E-2,4.84374E-2],"split_indices":[1,1,1,3,3,3,0,2147483647,2147483647,2147483647,2147483647,2147483647,2147483647,2147483647,2147483647,2147483647,2147483647,2147483647,2147483647,2147483647,2147483647,2147483647,2147483647,2147483647,2147483647,2147483647,2147483647,2147483647,2147483647,2147483647,2147483647,2147483647,2147483647,2147483647,2147483647,2147483647,2147483647,2147483647,2147483647,2147483647,2147483647,2147483647,2147483647],"split_type":[0,0,0,0,0,0,0,0,0,0,0,0,0,0,0,0,0,0,0,0,0,0,0,0,0,0,0,0,0,0,0,0,0,0,0,0,0,0,0,0,0,0,0],"sum_hessian":[1.1270068E2,7.40944E1,3.860629E1,3.964093E1,3.4453465E1,2.8622375E1,9.983915E0,3.1817253E1,7.823678E0,7.1726284E0,2.7280836E1,6.481257E0,2.2141119E1,2.2171183E0,5.6065598E0,2.0878048E1,6.402789E0,4.5223117E0,1.9589453E0,1.7423433E1,4.7176847E0,4.164488E0,1.442072E0,1.669953E1,4.178517E0,3.6781468E0,2.724642E0,2.8888597E0,1.6334519E0,1.18622675E1,5.561166E0,2.2171183E0,1.9473695E0,5.3929744E0,1.1306556E1,3.0112014E0,1.1673156E0,1.4792725E0,1.2453697E0,3.089617E0,8.772651E0,3.1498518E0,2.411314E0],"tree_param":{"num_deleted":"36","num_feature":"6","num_nodes":"43","size_leaf_vector":"0"}},{"base_weights":[-2.9496375E-1,-7.707996E-1,-5.17872E-3,-8.595032E-1,2.136427E-2,-1.8121344E-1,2.8344244E-1,-9.95247E-1,-4.2306063E-1,-2.4291149E-1,3.3953595E-1,1.9160111E-1,-3.3830413E-1,1.1215354E0,1.2023388E-1,-5.920162E-1,-1.1095737E0,-7.5738966E-1,6.955787E-2,-7.051769E-2,-3.1906855E-1,-3.5228917E-1,7.298988E-1,-4.2905694E-1,3.230888E-1,1.3418723E0,2.8841436E-1,-1.8475467E-1,4.3481612E-1,-1.151033E-1,-6.772018E-1,-3.6113155E-1,-1.0061611E0,5.479107E-1,-4.3419883E-1,1.883783E-2,-6.0030746E-1,1.0315617E0,1.5204808E-1,-3.2946745E-1,-9.8654133E-1,-2.6943323E-1,6.977307E-1,-3.6649117E-1,2.1513654E-1,6.1840415E-1,-4.54033E-1,-8.9194083E-1,-1.9516125E-1,-4.8857322E-1,-7.633664E-2,6.704343E-1,-5.851172E-1,-9.662699E-1,2.296116E-2,2.8990078E-1,1.2067353E0,3.865528E-1,-1.7945059E-1,-4.9872544E-2,-4.6836814E-1,-5.603523E-2,-8.845701E-1,-4.3268833E-1,6.526096E-1,8.0281526E-1,-2.3186147E-1],"categories":[],"categories_nodes":[],"categories_segments":[],"categories_sizes":[],"default_left":[1,1,1,1,1,1,1,1,1,1,1,1,1,1,1,1,1,1,1,1,1,1,1,1,1,1,1,1,1,1,1,1,1,1,1,1,1,1,1,1,1,1,1,1,1,1,1,1,1,1,1,1,1,1,1,1,1,1,1,1,1,1,1,1,1,1,1],"id":10,"left_children":[1,-1,-1,-1,-1,-1,-1,-1,-1,-1,-1,-1,-1,-1,-1,-1,-1,-1,-1,-1,-1,-1,-1,-1,-1,-1,-1,-1,-1,-1,-1,-1,-1,-1,-1,-1,-1,-1,-1,-1,-1,-1,-1,-1,-1,-1,-1,-1,-1,-1,-1,-1,-1,-1,-1,-1,-1,-1,-1,-1,-1,-1,-1,-1,-1,-1,-1],"loss_changes":[1.5389221E1,2.9869194E0,3.6275706E0,1.8312035E0,5.2223897E-1,2.6611123E0,3.566023E0,6.458168E-1,1.8245325E0,2.266252E-2,0E0,4.2917075E0,2.0324073E0,4.0048933E-1,2.3605688E0,2.627418E-1,0E0,2.766974E-1,1.5067177E0,0E0,0E0,7.0433295E-1,1.1071839E0,1.2391491E0,1.1596854E0,0E0,0E0,1.0068276E0,2.2385278E0,0E0,5.412352E-1,1.1020613E-1,0E0,0E0,0E0,1.9607518E0,1.0585265E0,2.4667263E-1,3.5388926E-1,9.632604E-1,0E0,0E0,0E0,1.4219699E0,1.591691E0,1.8116579E0,0E0,0E0,0E0,0E0,0E0,0E0,0E0,0E0,0E0,0E0,0E0,0E0,0E0,0E0,0E0,0E0,0E0,0E0,0E0,0E0,0E0],"parents":[2147483647,0,0,1,1,2,2,3,3,4,4,5,5,6,6,7,7,8,8,9,9,11,11,12,12,13,13,14,14,15,15,17,17,18,18,21,21,22,22,23,23,24,24,27,27,28,28,30,30,31,31,35,35,36,36,37,37,38,38,39,39,43,43,44,44,45,45],"right_children":[2,-1,-1,-1,-1,-1,-1,-1,-1,-1,-1,-1,-1,-1,-1,-1,-1,-1,-1,-1,-1,-1,-1,-1,-1,-1,-1,-1,-1,-1,-1,-1,-1,-1,-1,-1,-1,-1,-1,-1,-1,-1,-1,-1,-1,-1,-1,-1,-1,-1,-1,-1,-1,-1,-1,-1,-1,-1,-1,-1,-1,-1,-1,-1,-1,-1,-1],"split_conditions":[2.65E1,-7.707996E-2,-5.1787205E-4,-8.595032E-2,2.136427E-3,-1.8121345E-2,2.8344244E-2,-9.95247E-2,-4.230606E-2,-2.4291148E-2,3.3953596E-2,1.9160112E-2,-3.3830415E-2,1.12153545E-1,1.2023388E-2,-5.9201624E-2,-1.1095738E-1,-7.573897E-2,6.955787E-3,-7.051769E-3,-3.1906854E-2,-3.522892E-2,7.298988E-2,-4.2905696E-2,3.230888E-2,1.3418724E-1,2.8841436E-2,-1.8475467E-2,4.3481614E-2,-1.151033E-2,-6.772018E-2,-3.6113154E-2,-1.0061611E-1,5.479107E-2,-4.3419883E-2,1.883783E-3,-6.0030747E-2,1.0315617E-1,1.5204809E-2,-3.2946747E-2,-9.8654136E-2,-2.6943324E-2,6.977307E-2,-3.664912E-2,2.1513654E-2,6.1840415E-2,-4.5403298E-2,-8.919408E-2,-1.9516125E-2,-4.8857324E-2,-7.6336637E-3,6.704343E-2,-5.8511723E-2,-9.662699E-2,2.296116E-3,2.8990079E-2,1.2067353E-1,3.865528E-2,-1.7945059E-2,-4.9872543E-3,-4.6836816E-2,-5.6035235E-3,-8.845701E-2,-4.3268833E-2,6.526096E-2,8.0281526E-2,-2.3186147E-2],"split_indices":[5,2,0,2147483647,2147483647,2147483647,2147483647,2147483647,2147483647,2147483647,2147483647,2147483647,2147483647,2147483647,2147483647,2147483647,2147483647,2147483647,2147483647,2147483647,2147483647,2147483647,2147483647,2147483647,2147483647,2147483647,2147483647,2147483647,2147483647,2147483647,2147483647,2147483647,2147483647,2147483647,2147483647,2147483647,2147483647,2147483647,2147483647,2147483647,2147483647,2147483647,2147483647,2147483647,2147483647,2147483647,2147483647,2147483647,2147483647,2147483647,2147483647,2147483647,2147483647,2147483647,2147483647,2147483647,2147483647,2147483647,2147483647,2147483647,2147483647,2147483647,2147483647,2147483647,2147483647,2147483647,2147483647],"split_type":[0,0,0,0,0,0,0,0,0,0,0,0,0,0,0,0,0,0,0,0,0,0,0,0,0,0,0,0,0,0,0,0,0,0,0,0,0,0,0,0,0,0,0,0,0,0,0,0,0,0,0,0,0,0,0,0,0,0,0,0,0,0,0,0,0,0,0],"sum_hessian":[1.1063392E2,4.1246315E1,6.93876E1,3.701635E1,4.2299633E0,4.333129E1,2.6056316E1,2.725809E1,9.758262E0,2.439902E0,1.7900612E0,1.2780459E1,3.0550833E1,3.2900047E0,2.276631E1,7.3859854E0,1.9872103E1,5.4928865E0,4.265375E0,1.3377163E0,1.1021858E0,6.5290875E0,6.2513714E0,2.7173512E1,3.3773217E0,2.1189463E0,1.1710584E0,1.1768961E1,1.099735E1,1.475664E0,5.910321E0,3.0640087E0,2.4288778E0,2.1428947E0,2.1224806E0,2.9855895E0,3.5434983E0,3.5913582E0,2.6600134E0,2.4404804E1,2.7687068E0,1.4170244E0,1.9602972E0,8.1490345E0,3.6199267E0,9.366917E0,1.6304328E0,3.5005536E0,2.4097676E0,1.6224561E0,1.4415528E0,1.3832029E0,1.6023865E0,1.8858585E0,1.6576397E0,1.1934379E0,2.3979201E0,1.4606569E0,1.1993564E0,8.551148E0,1.5853656E1,5.78848E0,2.3605545E0,1.463566E0,2.1563606E0,7.743305E0,1.6236116E0],"tree_param":{"num_deleted":"64","num_feature":"6","num_nodes":"67","size_leaf_vector":"0"}},{"base_weights":[-2.6957962E-1,-7.617307E-1,4.0444237E-1,-1.0721365E0,-4.67623E-1,4.477863E-2,1.0474138E0,-1.2019297E0,-1.6697976E-1,-5.437716E-1,9.26808E-1,-5.284584E-1,4.91468E-1,5.53215E-1,1.2766743E0,-8.534017E-1,3.5475934E-1,-1.1074052E0,-3.65254E-1,-1.1576307E0,-2.4853387E-1,-7.408542E-1,6.1124456E-1,7.5731695E-1,-1.3884443E-1,6.734999E-1,1.4594688E0,-3.2266036E-1,8.4459275E-1,-1.636547E-1,-6.9007605E-1,1.20824836E-1,-9.047363E-1,7.7993083E-1,1.5626888E-1,-7.463702E-3,1.0263628E0,1.642283E-1,1.0089896E0,-4.99813E-1,5.48684E-1,5.937158E-2,-7.9430586E-1,-9.7248085E-2,7.274959E-1,2.3533608E-1,9.0688425E-1,-3.275049E-1,4.294018E-1],"categories":[],"categories_nodes":[],"categories_segments":[],"categories_sizes":[],"default_left":[1,1,1,1,1,1,1,1,1,1,1,1,1,1,1,1,1,1,1,1,1,1,1,1,1,1,1,1,1,1,1,1,1,1,1,1,1,1,1,1,1,1,1,1,1,1,1,1,1],"id":11,"left_children":[1,-1,5,-1,-1,11,-1,-1,-1,-1,-1,-1,-1,-1,-1,-1,-1,-1,-1,-1,-1,-1,-1,-1,-1,-1,-1,-1,-1,-1,-1,-1,-1,-1,-1,-1,-1,-1,-1,-1,-1,-1,-1,-1,-1,-1,-1,-1,-1],"loss_changes":[3.6928078E1,5.3552704E0,1.0877969E1,3.3752213E0,4.190088E0,8.284622E0,1.2087135E0,0E0,2.0857325E0,2.970974E0,0E0,2.2145486E0,3.1292486E0,1.1109681E0,2.0573997E-1,0E0,1.4454912E0,0E0,1.6531539E0,0E0,2.8011875E0,0E0,1.1885252E0,1.1710267E0,0E0,5.7995725E-1,0E0,0E0,0E0,4.5730653E0,8.296757E-1,1.1276151E0,0E0,6.304345E-1,9.1609114E-1,0E0,0E0,0E0,0E0,0E0,0E0,0E0,0E0,0E0,0E0,0E0,0E0,0E0,0E0],"parents":[2147483647,0,0,1,1,2,2,3,3,4,4,5,5,6,6,8,8,9,9,11,11,12,12,13,13,14,14,16,16,18,18,20,20,22,22,23,23,25,25,29,29,30,30,31,31,33,33,34,34],"right_children":[2,-1,6,-1,-1,12,-1,-1,-1,-1,-1,-1,-1,-1,-1,-1,-1,-1,-1,-1,-1,-1,-1,-1,-1,-1,-1,-1,-1,-1,-1,-1,-1,-1,-1,-1,-1,-1,-1,-1,-1,-1,-1,-1,-1,-1,-1,-1,-1],"split_conditions":[1.235E2,-7.617307E-2,1.545E2,-1.0721365E-1,-4.67623E-2,3.185E-1,1.0474139E-1,-1.2019297E-1,-1.6697977E-2,-5.4377165E-2,9.2680804E-2,-5.2845843E-2,4.91468E-2,5.5321503E-2,1.2766743E-1,-8.534017E-2,3.5475936E-2,-1.1074052E-1,-3.6525402E-2,-1.1576307E-1,-2.4853388E-2,-7.408542E-2,6.1124455E-2,7.5731695E-2,-1.3884443E-2,6.734999E-2,1.4594689E-1,-3.2266036E-2,8.4459275E-2,-1.636547E-2,-6.9007605E-2,1.2082484E-2,-9.047363E-2,7.799309E-2,1.5626889E-2,-7.4637023E-4,1.0263628E-1,1.642283E-2,1.0089896E-1,-4.99813E-2,5.48684E-2,5.937158E-3,-7.943059E-2,-9.724809E-3,7.274959E-2,2.3533609E-2,9.068843E-2,-3.275049E-2,4.294018E-2],"split_indices":[1,1,1,2147483647,2147483647,4,1,2147483647,2147483647,2147483647,2147483647,3,3,2147483647,2147483647,2147483647,2147483647,2147483647,2147483647,2147483647,2147483647,2147483647,2147483647,2147483647,2147483647,2147483647,2147483647,2147483647,2147483647,2147483647,2147483647,2147483647,2147483647,2147483647,2147483647,2147483647,2147483647,2147483647,2147483647,2147483647,2147483647,2147483647,2147483647,2147483647,2147483647,2147483647,2147483647,2147483647,2147483647],"split_type":[0,0,0,0,0,0,0,0,0,0,0,0,0,0,0,0,0,0,0,0,0,0,0,0,0,0,0,0,0,0,0,0,0,0,0,0,0,0,0,0,0,0,0,0,0,0,0,0,0],"sum_hessian":[1.09394104E2,6.315214E1,4.6241962E1,2.9437725E1,3.3714417E1,3.034006E1,1.5901904E1,2.5459187E1,3.9785397E0,3.254709E1,1.167327E0,1.3207632E1,1.7132427E1,6.1208067E0,9.781097E0,1.4435964E0,2.534943E0,6.577286E0,2.5969803E1,3.1013577E0,1.0106275E1,1.0583436E0,1.6074083E1,4.6539664E0,1.4668406E0,3.3642879E0,6.4168096E0,1.2069987E0,1.3279445E0,1.6952278E1,9.017525E0,6.9885054E0,3.1177692E0,1.1205368E1,4.8687153E0,1.4641843E0,3.189782E0,1.9276475E0,1.4366404E0,1.1719909E1,5.232369E0,1.1535423E0,7.8639827E0,5.7583284E0,1.2301766E0,2.657813E0,8.547555E0,1.6850616E0,3.1836538E0],"tree_param":{"num_deleted":"42","num_feature":"6","num_nodes":"49","size_leaf_vector":"0"}},{"base_weights":[-2.4733725E-1,-7.0687354E-1,3.6807722E-1,-8.550553E-1,-6.133459E-2,1.2163897E-1,1.2055892E0,-1.0433017E0,-3.5504293E-1,-8.5167897E-1,4.3571916E-1,-2.978224E-1,4.672449E-1,6.01707E-1,1.3972677E0,-1.1099023E0,-5.2104247E-1,1.8634608E-1,-6.392482E-1,-1.0890284E0,-2.4849704E-1,-6.492955E-1,8.284319E-1,-6.39719E-1,1.0781263E-1,2.1410184E-1,1.4197819E0,9.675925E-2,9.596797E-1,2.323848E-1,-7.4343014E-1,-3.4067476E-1,1.1415902E0,-1.3423711E-1,-9.857669E-1,1.2684319E0,1.16291754E-1,-7.7459395E-1,6.430478E-2,-2.7700296E-1,4.6950072E-1,8.9178175E-1,-2.3110302E-2,-9.365714E-1,-3.220582E-1,-2.7583107E-2,-5.611005E-1,-5.682325E-1,6.197365E-1,-3.0815843E-1,-1.0758367E0,4.1138127E-1,-1.9789831E-1,-3.5516757E-1,-1.0420978E0,1.3629124E-1,-4.9193007E-1,8.68957E-1,-8.581348E-2,2.002453E-1,1.2339579E0,-6.106029E-1,3.4185377E-1],"categories":[],"categories_nodes":[],"categories_segments":[],"categories_sizes":[],"default_left":[1,1,1,1,1,1,1,1,1,1,1,1,1,1,1,1,1,1,1,1,1,1,1,1,1,1,1,1,1,1,1,1,1,1,1,1,1,1,1,1,1,1,1,1,1,1,1,1,1,1,1,1,1,1,1,1,1,1,1,1,1,1,1],"id":12,"left_children":[1,-1,5,-1,-1,-1,-1,-1,-1,-1,-1,-1,-1,-1,-1,-1,-1,-1,-1,-1,-1,-1,-1,-1,-1,-1,-1,-1,-1,-1,-1,-1,-1,-1,-1,-1,-1,-1,-1,-1,-1,-1,-1,-1,-1,-1,-1,-1,-1,-1,-1,-1,-1,-1,-1,-1,-1,-1,-1,-1,-1,-1,-1],"loss_changes":[3.0924194E1,5.918272E0,9.555988E0,4.400593E0,5.3720865E0,5.565962E0,3.833933E-1,6.845932E-1,2.4854994E0,4.814949E-1,4.1498322E0,2.4988852E0,4.7388186E0,6.8518853E-1,0E0,0E0,1.1766253E0,3.444039E0,1.6720428E0,0E0,0E0,0E0,1.9404135E0,9.662919E-1,1.3645173E0,2.8659508E0,0E0,0E0,0E0,0E0,9.42266E-2,3.0757904E-1,0E0,2.1039448E0,3.206396E-2,0E0,4.1941753E-1,5.472822E-1,0E0,5.0463223E-1,1.1710719E0,8.4482026E-1,3.2288597E0,0E0,0E0,0E0,0E0,0E0,0E0,0E0,0E0,0E0,0E0,0E0,0E0,0E0,0E0,0E0,0E0,0E0,0E0,0E0,0E0],"parents":[2147483647,0,0,1,1,2,2,3,3,4,4,5,5,6,6,7,7,8,8,9,9,10,10,11,11,12,12,13,13,16,16,17,17,18,18,22,22,23,23,24,24,25,25,30,30,31,31,33,33,34,34,36,36,37,37,39,39,40,40,41,41,42,42],"right_children":[2,-1,6,-1,-1,-1,-1,-1,-1,-1,-1,-1,-1,-1,-1,-1,-1,-1,-1,-1,-1,-1,-1,-1,-1,-1,-1,-1,-1,-1,-1,-1,-1,-1,-1,-1,-1,-1,-1,-1,-1,-1,-1,-1,-1,-1,-1,-1,-1,-1,-1,-1,-1,-1,-1,-1,-1,-1,-1,-1,-1,-1,-1],"split_conditions":[1.235E2,-7.068735E-2,1.655E2,-8.550553E-2,-6.133459E-3,1.2163897E-2,1.2055892E-1,-1.04330175E-1,-3.5504293E-2,-8.51679E-2,4.3571915E-2,-2.978224E-2,4.672449E-2,6.01707E-2,1.3972677E-1,-1.10990226E-1,-5.2104246E-2,1.8634608E-2,-6.392482E-2,-1.08902834E-1,-2.4849704E-2,-6.492955E-2,8.284319E-2,-6.39719E-2,1.0781263E-2,2.1410184E-2,1.4197819E-1,9.675926E-3,9.596797E-2,2.323848E-2,-7.434302E-2,-3.4067478E-2,1.14159025E-1,-1.3423711E-2,-9.857669E-2,1.268432E-1,1.1629175E-2,-7.7459395E-2,6.430478E-3,-2.7700296E-2,4.6950072E-2,8.9178175E-2,-2.3110302E-3,-9.365714E-2,-3.220582E-2,-2.7583109E-3,-5.611005E-2,-5.682325E-2,6.197365E-2,-3.0815843E-2,-1.07583664E-1,4.1138127E-2,-1.9789832E-2,-3.5516758E-2,-1.0420978E-1,1.3629124E-2,-4.9193006E-2,8.68957E-2,-8.581348E-3,2.002453E-2,1.2339579E-1,-6.106029E-2,3.4185376E-2],"split_indices":[1,0,1,2147483647,2147483647,4,4,2147483647,2147483647,2147483647,2147483647,2147483647,2147483647,2147483647,2147483647,2147483647,2147483647,2147483647,2147483647,2147483647,2147483647,2147483647,2147483647,2147483647,2147483647,2147483647,2147483647,2147483647,2147483647,2147483647,2147483647,2147483647,2147483647,2147483647,2147483647,2147483647,2147483647,2147483647,2147483647,2147483647,2147483647,2147483647,2147483647,2147483647,2147483647,2147483647,2147483647,2147483647,2147483647,2147483647,2147483647,2147483647,2147483647,2147483647,2147483647,2147483647,2147483647,2147483647,2147483647,2147483647,2147483647,2147483647,2147483647],"split_type":[0,0,0,0,0,0,0,0,0,0,0,0,0,0,0,0,0,0,0,0,0,0,0,0,0,0,0,0,0,0,0,0,0,0,0,0,0,0,0,0,0,0,0,0,0,0,0,0,0,0,0,0,0,0,0,0,0,0,0,0,0,0,0],"sum_hessian":[1.07427986E2,6.1417957E1,4.6010033E1,4.9687717E1,1.1730239E1,3.6434425E1,9.575607E0,3.5308205E1,1.4379514E1,4.2534895E0,7.47675E0,1.6521078E1,1.9913347E1,3.3043664E0,6.271241E0,3.0316883E1,4.9913206E0,5.068583E0,9.310931E0,2.4743652E0,1.7791241E0,1.8133466E0,5.663403E0,8.651732E0,7.869346E0,1.6699984E1,3.213362E0,1.8977473E0,1.4066191E0,1.1272743E0,3.8640463E0,3.681058E0,1.3875248E0,4.3535385E0,4.9573927E0,3.0177276E0,2.6456757E0,7.1766176E0,1.4751151E0,3.926215E0,3.943131E0,3.6144915E0,1.3085493E1,1.8111916E0,2.0528545E0,1.9857061E0,1.6953518E0,2.9194314E0,1.4341068E0,1.1003821E0,3.8570106E0,1.2047898E0,1.4408859E0,3.7011678E0,3.4754498E0,1.4684091E0,2.4578059E0,1.9649056E0,1.9782255E0,1.7211887E0,1.8933029E0,4.7562222E0,8.32927E0],"tree_param":{"num_deleted":"58","num_feature":"6","num_nodes":"63","size_leaf_vector":"0"}},{"base_weights":[-2.2645207E-1,-9.9519724E-1,-4.0021326E-2,-1.1397917E0,-8.5473254E-2,-4.125316E-1,2.3032533E-1,-6.6994435E-1,6.7604107E-1,-9.442967E-1,-1.7889026E-1,-4.7656816E-1,2.731612E-1,2.3307957E-1,-1.090878E0,1.0375094E0,-2.9320168E-1,-1.279295E-1,-5.966481E-1,6.588697E-1,1.9061624E-1,-4.4499293E-1,2.9062733E-1,3.7562314E-1,9.523527E-1,-5.193948E-1,2.5088134E-1,-1.340207E-1,-8.499973E-1,-1.9512293E-1,1.0917519E0,6.8797755E-1,-6.2321555E-2,1.02405414E-1,4.7567132E-1],"categories":[],"categories_nodes":[],"categories_segments":[],"categories_sizes":[],"default_left":[1,1,1,1,1,1,1,1,1,1,1,1,1,1,1,1,1,1,1,1,1,1,1,1,1,1,1,1,1,1,1,1,1,1,1],"id":13,"left_children":[1,-1,5,-1,-1,-1,-1,-1,-1,-1,-1,-1,-1,-1,-1,-1,-1,-1,-1,-1,-1,-1,-1,-1,-1,-1,-1,-1,-1,-1,-1,-1,-1,-1,-1],"loss_changes":[1.5223494E1,2.6313572E0,8.831864E0,0E0,2.2003512E0,4.408442E0,1.6718438E0,0E0,0E0,2.1548014E0,4.0348444E0,6.0704708E-2,1.423013E0,0E0,0E0,0E0,2.3718364E0,0E0,0E0,3.2120204E-1,1.9048653E0,2.4652276E0,2.4803555E0,8.3729386E-1,0E0,0E0,1.2496772E0,0E0,0E0,0E0,0E0,0E0,0E0,0E0,0E0],"parents":[2147483647,0,0,1,1,2,2,4,4,5,5,6,6,9,9,10,10,11,11,12,12,16,16,19,19,20,20,21,21,22,22,23,23,26,26],"right_children":[2,-1,6,-1,-1,-1,-1,-1,-1,-1,-1,-1,-1,-1,-1,-1,-1,-1,-1,-1,-1,-1,-1,-1,-1,-1,-1,-1,-1,-1,-1,-1,-1,-1,-1],"split_conditions":[2.6349998E1,-9.951972E-2,2.85E1,-1.13979176E-1,-8.547326E-3,-4.125316E-2,2.3032533E-2,-6.6994436E-2,6.760411E-2,-9.442967E-2,-1.7889027E-2,-4.7656815E-2,2.7316121E-2,2.3307957E-2,-1.090878E-1,1.03750944E-1,-2.932017E-2,-1.279295E-2,-5.9664812E-2,6.588697E-2,1.9061623E-2,-4.4499293E-2,2.9062733E-2,3.7562314E-2,9.523527E-2,-5.1939484E-2,2.5088135E-2,-1.340207E-2,-8.499973E-2,-1.9512294E-2,1.091752E-1,6.879776E-2,-6.2321555E-3,1.0240542E-2,4.7567133E-2],"split_indices":[3,5,5,2147483647,2147483647,3,2,2147483647,2147483647,2147483647,2147483647,2147483647,2147483647,2147483647,2147483647,2147483647,2147483647,2147483647,2147483647,2147483647,2147483647,2147483647,2147483647,2147483647,2147483647,2147483647,2147483647,2147483647,2147483647,2147483647,2147483647,2147483647,2147483647,2147483647,2147483647],"split_type":[0,0,0,0,0,0,0,0,0,0,0,0,0,0,0,0,0,0,0,0,0,0,0,0,0,0,0,0,0,0,0,0,0,0,0],"sum_hessian":[1.0549989E2,1.9744696E1,8.5755196E1,1.6818594E1,2.926101E0,3.584226E1,4.9912937E1,1.7235237E0,1.2025772E0,1.001243E1,2.5829828E1,2.2732627E0,4.7639675E1,1.0431885E0,8.969242E0,1.5250844E0,2.4304745E1,1.1115042E0,1.1617587E0,7.1672525E0,4.047242E1,1.9478327E1,4.8264174E0,4.807406E0,2.3598464E0,2.5704348E0,3.7901985E1,1.17711E1,7.7072263E0,3.4755232E0,1.3508943E0,2.4728074E0,2.3345988E0,2.3702091E1,1.4199895E1],"tree_param":{"num_deleted":"30","num_feature":"6","num_nodes":"35","size_leaf_vector":"0"}},{"base_weights":[-2.080214E-1,-8.0726045E-1,2.1082027E-1,-8.9826363E-1,2.2407338E-1,-3.680015E-2,9.172155E-1,-1.0707154E0,-5.307652E-1,-6.8145376E-1,7.361584E-1,-2.5199828E-1,4.8408973E-1,4.6437082E-1,1.1384605E0,-1.126265E0,-2.8490466E-1,1.9738717E-1,-6.434182E-1,1.0166013E0,1.04324326E-1,4.528445E-2,-4.9145114E-1,1.4012841E0,1.386558E-1,6.77838E-1,-2.174642E-1,5.3932434E-1,1.3354763E0,-2.6274505E-1,-1.1627718E0,-1.0037128E0,-2.9188126E-1,2.1288805E-1,-8.887928E-1,6.918679E-1,-5.99636E-1,-1.4707024E-1,9.3324804E-1,-6.686242E-2,9.5353425E-1,3.1478718E-2,9.2225575E-1,-1.1971968E0,-3.2949802E-1,-1.093095E0,-3.0456418E-1,1.154165E-1,-9.8612124E-1,-1.1269077E-1,7.479307E-1,-8.611953E-1,-3.1306896E-1,2.1636073E-1,-5.742399E-1],"categories":[],"categories_nodes":[],"categories_segments":[],"categories_sizes":[],"default_left":[1,1,1,1,1,1,1,1,1,1,1,1,1,1,1,1,1,1,1,1,1,1,1,1,1,1,1,1,1,1,1,1,1,1,1,1,1,1,1,1,1,1,1,1,1,1,1,1,1,1,1,1,1,1,1],"id":14,"left_children":[1,-1,5,-1,-1,-1,-1,-1,-1,-1,-1,-1,-1,-1,-1,-1,-1,-1,-1,-1,-1,-1,-1,-1,-1,-1,-1,-1,-1,-1,-1,-1,-1,-1,-1,-1,-1,-1,-1,-1,-1,-1,-1,-1,-1,-1,-1,-1,-1,-1,-1,-1,-1,-1,-1],"loss_changes":[2.656609E1,4.281496E0,1.1000212E1,1.9761429E0,2.5073612E0,5.433419E0,1.105566E0,8.2901764E-1,1.3414998E0,0E0,4.6869135E-1,2.4559627E0,4.3031344E0,1.1724372E0,4.918785E-1,4.5941925E-1,0E0,0E0,1.3607717E0,0E0,0E0,2.7203956E0,2.849803E0,0E0,2.7303107E0,1.2147808E0,0E0,7.9135144E-1,0E0,0E0,2.6496696E-1,4.4409275E-2,2.3812232E0,2.6127915E0,0E0,0E0,1.0767746E0,1.5625212E0,0E0,0E0,0E0,0E0,0E0,0E0,0E0,0E0,0E0,0E0,0E0,0E0,0E0,0E0,0E0,0E0,0E0],"parents":[2147483647,0,0,1,1,2,2,3,3,4,4,5,5,6,6,7,7,8,8,10,10,11,11,12,12,13,13,14,14,15,15,18,18,21,21,22,22,24,24,25,25,27,27,30,30,31,31,32,32,33,33,36,36,37,37],"right_children":[2,-1,6,-1,-1,-1,-1,-1,-1,-1,-1,-1,-1,-1,-1,-1,-1,-1,-1,-1,-1,-1,-1,-1,-1,-1,-1,-1,-1,-1,-1,-1,-1,-1,-1,-1,-1,-1,-1,-1,-1,-1,-1,-1,-1,-1,-1,-1,-1,-1,-1,-1,-1,-1,-1],"split_conditions":[1.115E2,-8.072605E-2,1.545E2,-8.982637E-2,2.2407338E-2,-3.680015E-3,9.172156E-2,-1.0707154E-1,-5.3076517E-2,-6.814538E-2,7.361584E-2,-2.5199829E-2,4.8408974E-2,4.643708E-2,1.13846056E-1,-1.1262651E-1,-2.8490467E-2,1.9738717E-2,-6.434182E-2,1.0166013E-1,1.0432432E-2,4.528445E-3,-4.9145114E-2,1.4012842E-1,1.386558E-2,6.77838E-2,-2.174642E-2,5.3932436E-2,1.3354763E-1,-2.6274506E-2,-1.1627718E-1,-1.0037128E-1,-2.9188126E-2,2.1288805E-2,-8.887928E-2,6.918679E-2,-5.9963603E-2,-1.4707024E-2,9.33248E-2,-6.686242E-3,9.5353425E-2,3.147872E-3,9.2225574E-2,-1.19719684E-1,-3.29498E-2,-1.09309494E-1,-3.0456418E-2,1.154165E-2,-9.861212E-2,-1.1269077E-2,7.479307E-2,-8.611953E-2,-3.1306896E-2,2.1636074E-2,-5.742399E-2],"split_indices":[1,4,1,2147483647,2147483647,4,1,2147483647,2147483647,2147483647,2147483647,2147483647,2147483647,2147483647,2147483647,2147483647,2147483647,2147483647,2147483647,2147483647,2147483647,2147483647,2147483647,2147483647,2147483647,2147483647,2147483647,2147483647,2147483647,2147483647,2147483647,2147483647,2147483647,2147483647,2147483647,2147483647,2147483647,2147483647,2147483647,2147483647,2147483647,2147483647,2147483647,2147483647,2147483647,2147483647,2147483647,2147483647,2147483647,2147483647,2147483647,2147483647,2147483647,2147483647,2147483647],"split_type":[0,0,0,0,0,0,0,0,0,0,0,0,0,0,0,0,0,0,0,0,0,0,0,0,0,0,0,0,0,0,0,0,0,0,0,0,0,0,0,0,0,0,0,0,0,0,0,0,0,0,0,0,0,0,0],"sum_hessian":[1.0416871E2,4.2473824E1,6.169489E1,3.9148453E1,3.3253686E0,4.6383484E1,1.5311403E1,2.5342669E1,1.3805785E1,1.0817505E0,2.243618E0,3.3188396E1,1.3195089E1,6.0424995E0,9.268904E0,2.3264809E1,2.0778606E0,1.7489533E0,1.2056832E1,1.1321421E0,1.111476E0,1.5168037E1,1.8020359E1,2.7737234E0,1.0421366E1,4.6062484E0,1.4362508E0,3.2185574E0,6.050347E0,1.2761562E0,2.1988651E1,5.038055E0,7.018777E0,1.3515082E1,1.6529545E0,1.0575634E0,1.6962795E1,8.26447E0,2.1568956E0,1.4492004E0,3.1570482E0,1.8488317E0,1.3697257E0,2.0696863E1,1.2917888E0,3.967382E0,1.0706731E0,4.949026E0,2.0697508E0,8.892989E0,4.622093E0,7.8200045E0,9.142791E0,4.7320223E0,3.532448E0],"tree_param":{"num_deleted":"50","num_feature":"6","num_nodes":"55","size_leaf_vector":"0"}},{"base_weights":[-1.911121E-1,-4.9211237E-1,1.4840357E-1,-8.3484113E-1,-3.2338998E-1,6.3145685E-1,5.566112E-2,-9.271184E-1,-5.4478172E-2,-1.2801974E-1,-5.9232444E-1,8.4364575E-1,1.3943803E-1,-3.6920673E-1,2.5346446E-1,-3.1703827E-1,-9.97858E-1,-3.6961216E-1,3.3071586E-1,1.4644848E-3,-8.355235E-1,4.7578227E-2,1.1559906E0,3.5649765E-1,-1.6815214E-1,2.599375E-1,-4.855273E-1,5.076466E-2,4.794641E-1,2.7994657E-1,-4.6384588E-1,-4.9114385E-1,5.685641E-1,-3.3538428E-1,5.2844155E-1,-6.851097E-1,-2.599207E-2,5.697761E-1,-2.285604E-1,6.121954E-1,-2.7332795E-1,-8.152415E-1,-2.6695517E-1,8.1818E-1,1.5183209E-1,-5.2976733E-1,2.4098353E-2,-3.2150894E-1,-9.0529853E-1,6.405575E-1,-4.3649614E-1,-2.7370945E-1,7.9731685E-1,-6.294149E-1,5.93342E-2,-3.0044474E-2,8.422877E-1],"categories":[],"categories_nodes":[],"categories_segments":[],"categories_sizes":[],"default_left":[1,1,1,1,1,1,1,1,1,1,1,1,1,1,1,1,1,1,1,1,1,1,1,1,1,1,1,1,1,1,1,1,1,1,1,1,1,1,1,1,1,1,1,1,1,1,1,1,1,1,1,1,1,1,1,1,1],"id":15,"left_children":[1,-1,-1,-1,-1,-1,-1,-1,-1,-1,-1,-1,-1,-1,-1,-1,-1,-1,-1,-1,-1,-1,-1,-1,-1,-1,-1,-1,-1,-1,-1,-1,-1,-1,-1,-1,-1,-1,-1,-1,-1,-1,-1,-1,-1,-1,-1,-1,-1,-1,-1,-1,-1,-1,-1,-1,-1],"loss_changes":[1.062422E1,2.908084E0,2.1729E0,1.2095289E0,1.9449773E0,7.0107055E-1,3.6606982E0,3.5625553E-1,0E0,2.7325523E0,2.2984629E0,1.2581184E0,2.9769146E-1,1.1427563E0,1.3295636E0,0E0,0E0,1.1031079E0,1.9706929E0,1.1749378E0,0E0,0E0,0E0,0E0,0E0,0E0,1.0893643E0,2.5511189E0,1.5517867E0,0E0,7.691128E-1,0E0,6.2205935E-1,2.951088E-1,0E0,3.7961125E-1,1.5642041E0,1.3945509E0,1.3725615E0,1.8115449E0,0E0,0E0,0E0,0E0,0E0,0E0,0E0,0E0,0E0,0E0,0E0,0E0,0E0,0E0,0E0,0E0,0E0],"parents":[2147483647,0,0,1,1,2,2,3,3,4,4,5,5,6,6,7,7,9,9,10,10,11,11,12,12,13,13,14,14,17,17,18,18,19,19,26,26,27,27,28,28,30,30,32,32,33,33,35,35,36,36,37,37,38,38,39,39],"right_children":[2,-1,-1,-1,-1,-1,-1,-1,-1,-1,-1,-1,-1,-1,-1,-1,-1,-1,-1,-1,-1,-1,-1,-1,-1,-1,-1,-1,-1,-1,-1,-1,-1,-1,-1,-1,-1,-1,-1,-1,-1,-1,-1,-1,-1,-1,-1,-1,-1,-1,-1,-1,-1,-1,-1,-1,-1],"split_conditions":[3.05E1,-4.9211238E-2,1.4840357E-2,-8.348411E-2,-3.2339E-2,6.314569E-2,5.566112E-3,-9.271184E-2,-5.4478175E-3,-1.2801974E-2,-5.9232444E-2,8.436458E-2,1.39438035E-2,-3.6920674E-2,2.5346447E-2,-3.1703826E-2,-9.97858E-2,-3.6961216E-2,3.307159E-2,1.4644848E-4,-8.355235E-2,4.757823E-3,1.1559906E-1,3.5649765E-2,-1.6815213E-2,2.599375E-2,-4.8552733E-2,5.076466E-3,4.7946412E-2,2.7994657E-2,-4.6384588E-2,-4.9114387E-2,5.6856412E-2,-3.3538427E-2,5.2844156E-2,-6.851097E-2,-2.599207E-3,5.697761E-2,-2.285604E-2,6.121954E-2,-2.7332796E-2,-8.1524156E-2,-2.6695518E-2,8.181801E-2,1.5183209E-2,-5.2976735E-2,2.4098353E-3,-3.2150894E-2,-9.052985E-2,6.4055756E-2,-4.3649614E-2,-2.7370945E-2,7.973169E-2,-6.294149E-2,5.9334203E-3,-3.0044473E-3,8.422878E-2],"split_indices":[5,5,0,2147483647,2147483647,2147483647,2147483647,2147483647,2147483647,2147483647,2147483647,2147483647,2147483647,2147483647,2147483647,2147483647,2147483647,2147483647,2147483647,2147483647,2147483647,2147483647,2147483647,2147483647,2147483647,2147483647,2147483647,2147483647,2147483647,2147483647,2147483647,2147483647,2147483647,2147483647,2147483647,2147483647,2147483647,2147483647,2147483647,2147483647,2147483647,2147483647,2147483647,2147483647,2147483647,2147483647,2147483647,2147483647,2147483647,2147483647,2147483647,2147483647,2147483647,2147483647,2147483647,2147483647,2147483647],"split_type":[0,0,0,0,0,0,0,0,0,0,0,0,0,0,0,0,0,0,0,0,0,0,0,0,0,0,0,0,0,0,0,0,0,0,0,0,0,0,0,0,0,0,0,0,0,0,0,0,0,0,0,0,0,0,0,0,0],"sum_hessian":[1.0224634E2,5.395906E1,4.828728E1,1.649812E1,3.746094E1,6.8419514E0,4.1445328E1,1.4585353E1,1.9127673E0,2.2553059E1,1.4907882E1,4.2810407E0,2.5609107E0,1.2890626E1,2.8554703E1,2.0850446E0,1.2500308E1,1.4900181E1,7.6528773E0,4.6205177E0,1.0287365E1,1.5310946E0,2.7499459E0,1.408184E0,1.1527267E0,1.8187689E0,1.1071857E1,1.5698916E1,1.2855786E1,1.6380739E0,1.3262107E1,1.4786409E0,6.1742363E0,3.0405428E0,1.5799747E0,7.3770356E0,3.6948216E0,5.128977E0,1.056994E1,1.1087603E1,1.768184E0,3.6346607E0,9.627446E0,3.2588887E0,2.9153473E0,1.6659956E0,1.3745472E0,3.7103076E0,3.666728E0,1.1946347E0,2.500187E0,1.0465497E0,4.082427E0,3.92234E0,6.647599E0,3.1538677E0,7.933735E0],"tree_param":{"num_deleted":"54","num_feature":"6","num_nodes":"57","size_leaf_vector":"0"}},{"base_weights":[-1.7436995E-1,-5.8279896E-1,5.0762486E-2,-6.75874E-1,1.5998732E-1,-1.0936862E-1,3.0838796E-1,-8.3149284E-1,-1.9924016E-1,4.5852876E-1,-1.6073799E-1,2.6204252E-1,-2.6801127E-1,1.235614E0,1.2823418E-1,-4.1231576E-1,-9.6055275E-1,-5.741476E-1,2.8920862E-1,-3.7294242E-1,1.2575965E-1,-2.4900606E-1,7.426898E-1,-3.496433E-1,3.8648966E-1,1.4868844E0,2.8425318E-1,-1.8894625E-1,4.5625293E-1,-1.3626288E-1,-6.9785285E-1,-1.5647322E-1,-8.767032E-1,8.0685264E-1,-3.2652476E-1,1.03817716E-1,-5.05417E-1,1.0693792E0,1.2876366E-1,-2.3964654E-1,-8.7063205E-1,-2.136887E-1,8.004311E-1,-3.3438763E-1,1.421646E-1,6.366223E-1,-4.4474587E-1,-4.630503E-1,1.5903366E-1,-3.1608948E-1,8.2373716E-2,6.9623804E-1,-4.8860118E-1,-8.8339E-1,8.468688E-2,3.0367026E-1,1.24183E0,3.4796286E-1,-1.7601986E-1,1.1539423E-1,-4.1735068E-1,-4.4241756E-2,-8.1705153E-1,-4.6198186E-1,5.769864E-1,7.93902E-1,-1.4015105E-1],"categories":[],"categories_nodes":[],"categories_segments":[],"categories_sizes":[],"default_left":[1,1,1,1,1,1,1,1,1,1,1,1,1,1,1,1,1,1,1,1,1,1,1,1,1,1,1,1,1,1,1,1,1,1,1,1,1,1,1,1,1,1,1,1,1,1,1,1,1,1,1,1,1,1,1,1,1,1,1,1,1,1,1,1,1,1,1],"id":16,"left_children":[1,-1,-1,-1,-1,-1,-1,-1,-1,-1,-1,-1,-1,-1,-1,-1,-1,-1,-1,-1,-1,-1,-1,-1,-1,-1,-1,-1,-1,-1,-1,-1,-1,-1,-1,-1,-1,-1,-1,-1,-1,-1,-1,-1,-1,-1,-1,-1,-1,-1,-1,-1,-1,-1,-1,-1,-1,-1,-1,-1,-1,-1,-1,-1,-1,-1,-1],"loss_changes":[9.42675E0,2.6243353E0,2.7895834E0,2.2475033E0,5.391739E-1,2.5410762E0,4.1626196E0,9.137573E-1,1.8732889E0,0E0,2.3439789E-1,3.392034E0,1.731463E0,5.556607E-1,2.4557889E0,4.922719E-1,0E0,5.7168746E-1,1.7657752E0,0E0,0E0,6.927111E-1,1.2621186E0,1.3437917E0,1.1121876E0,0E0,0E0,6.392056E-1,2.150286E0,5.591649E-1,0E0,1.6228047E-1,0E0,0E0,0E0,1.6766813E0,1.0269555E0,2.0634031E-1,2.991493E-1,1.54642E0,0E0,0E0,0E0,1.2011042E0,1.435911E0,1.331039E0,0E0,0E0,0E0,0E0,0E0,0E0,0E0,0E0,0E0,0E0,0E0,0E0,0E0,0E0,0E0,0E0,0E0,0E0,0E0,0E0,0E0],"parents":[2147483647,0,0,1,1,2,2,3,3,4,4,5,5,6,6,7,7,8,8,10,10,11,11,12,12,13,13,14,14,15,15,17,17,18,18,21,21,22,22,23,23,24,24,27,27,28,28,29,29,31,31,35,35,36,36,37,37,38,38,39,39,43,43,44,44,45,45],"right_children":[2,-1,-1,-1,-1,-1,-1,-1,-1,-1,-1,-1,-1,-1,-1,-1,-1,-1,-1,-1,-1,-1,-1,-1,-1,-1,-1,-1,-1,-1,-1,-1,-1,-1,-1,-1,-1,-1,-1,-1,-1,-1,-1,-1,-1,-1,-1,-1,-1,-1,-1,-1,-1,-1,-1,-1,-1,-1,-1,-1,-1,-1,-1,-1,-1,-1,-1],"split_conditions":[2.65E1,-5.8279898E-2,5.0762487E-3,-6.75874E-2,1.5998732E-2,-1.0936863E-2,3.0838797E-2,-8.3149284E-2,-1.9924017E-2,4.5852877E-2,-1.6073799E-2,2.6204253E-2,-2.6801128E-2,1.235614E-1,1.2823418E-2,-4.1231576E-2,-9.605528E-2,-5.741476E-2,2.8920863E-2,-3.7294243E-2,1.2575964E-2,-2.4900606E-2,7.426898E-2,-3.496433E-2,3.8648967E-2,1.4868844E-1,2.842532E-2,-1.8894626E-2,4.5625295E-2,-1.3626288E-2,-6.978529E-2,-1.5647322E-2,-8.767032E-2,8.0685265E-2,-3.265248E-2,1.0381772E-2,-5.05417E-2,1.0693792E-1,1.2876366E-2,-2.3964655E-2,-8.706321E-2,-2.136887E-2,8.004311E-2,-3.3438765E-2,1.421646E-2,6.366223E-2,-4.4474587E-2,-4.630503E-2,1.5903367E-2,-3.160895E-2,8.237372E-3,6.9623806E-2,-4.8860118E-2,-8.8339E-2,8.468688E-3,3.0367026E-2,1.24183E-1,3.4796286E-2,-1.7601987E-2,1.1539423E-2,-4.1735068E-2,-4.4241757E-3,-8.170515E-2,-4.6198186E-2,5.7698637E-2,7.93902E-2,-1.4015106E-2],"split_indices":[5,2,0,2147483647,2147483647,2147483647,2147483647,2147483647,2147483647,2147483647,2147483647,2147483647,2147483647,2147483647,2147483647,2147483647,2147483647,2147483647,2147483647,2147483647,2147483647,2147483647,2147483647,2147483647,2147483647,2147483647,2147483647,2147483647,2147483647,2147483647,2147483647,2147483647,2147483647,2147483647,2147483647,2147483647,2147483647,2147483647,2147483647,2147483647,2147483647,2147483647,2147483647,2147483647,2147483647,2147483647,2147483647,2147483647,2147483647,2147483647,2147483647,2147483647,2147483647,2147483647,2147483647,2147483647,2147483647,2147483647,2147483647,2147483647,2147483647,2147483647,2147483647,2147483647,2147483647,2147483647,2147483647],"split_type":[0,0,0,0,0,0,0,0,0,0,0,0,0,0,0,0,0,0,0,0,0,0,0,0,0,0,0,0,0,0,0,0,0,0,0,0,0,0,0,0,0,0,0,0,0,0,0,0,0,0,0,0,0,0,0,0,0,0,0,0,0,0,0,0,0,0,0],"sum_hessian":[1.0119797E2,3.5395584E1,6.580238E1,3.153426E1,3.8613253E0,4.093443E1,2.4867954E1,2.3211346E1,8.322914E0,1.7772975E0,2.0840278E0,1.2056411E1,2.8878017E1,3.092522E0,2.1775433E1,6.451643E0,1.6759703E1,4.6094747E0,3.7134392E0,1.0239065E0,1.0601213E0,6.0769863E0,5.9794245E0,2.608978E1,2.7882366E0,2.0010958E0,1.0914259E0,1.1286162E1,1.048927E1,4.0313816E0,2.4202614E0,2.5736938E0,2.0357807E0,1.8487833E0,1.864656E0,2.8081114E0,3.2688751E0,3.4184763E0,2.5609484E0,2.2747145E1,3.342637E0,1.3355615E0,1.4526751E0,7.834805E0,3.4513571E0,8.984171E0,1.5050992E0,1.6439892E0,2.3873925E0,1.3488731E0,1.2248207E0,1.316431E0,1.4916804E0,1.6896279E0,1.5792472E0,1.1358832E0,2.282593E0,1.4072136E0,1.1537348E0,7.704572E0,1.5042572E1,5.5750885E0,2.2597163E0,1.4182966E0,2.0330606E0,7.453041E0,1.5311296E0],"tree_param":{"num_deleted":"64","num_feature":"6","num_nodes":"67","size_leaf_vector":"0"}},{"base_weights":[-1.591977E-1,-9.05873E-1,1.0956921E-2,-1.0576465E0,-3.9744426E-2,-2.8303352E-1,2.107289E-1,-3.6493084E-1,-1.1057447E0,-6.221882E-1,6.8116975E-1,-8.613125E-1,-4.1265152E-2,-4.883337E-1,2.530866E-1,7.742391E-2,-1.0116874E0,1.1540194E0,-1.6265109E-1,-1.3424514E-1,-6.0313964E-1,6.519315E-1,1.6843577E-1,-3.2104096E-1,4.064667E-1,4.1535074E-1,1.037858E0,-5.406543E-1,2.294228E-1,9.369287E-3,-7.6182765E-1,-1.0603368E-1,1.1890559E0,6.792917E-1,1.0362732E-1,1.4688121E-1,6.827872E-1],"categories":[],"categories_nodes":[],"categories_segments":[],"categories_sizes":[],"default_left":[1,1,1,1,1,1,1,1,1,1,1,1,1,1,1,1,1,1,1,1,1,1,1,1,1,1,1,1,1,1,1,1,1,1,1,1,1],"id":17,"left_children":[1,-1,-1,-1,-1,-1,-1,-1,-1,-1,-1,-1,-1,-1,-1,-1,-1,-1,-1,-1,-1,-1,-1,-1,-1,-1,-1,-1,-1,-1,-1,-1,-1,-1,-1,-1,-1],"loss_changes":[1.2874918E1,2.4299355E0,4.9610105E0,1.2829971E-1,2.0374177E0,4.744787E0,1.6119044E0,0E0,0E0,0E0,0E0,1.4942122E0,3.8384109E0,4.964006E-2,1.5124764E0,0E0,0E0,0E0,2.2685227E0,0E0,0E0,3.0521178E-1,1.8964727E0,2.7907915E0,2.3741763E0,4.7811878E-1,0E0,0E0,1.3382571E0,0E0,0E0,0E0,0E0,0E0,0E0,0E0,0E0],"parents":[2147483647,0,0,1,1,2,2,3,3,4,4,5,5,6,6,11,11,12,12,13,13,14,14,18,18,21,21,22,22,23,23,24,24,25,25,28,28],"right_children":[2,-1,-1,-1,-1,-1,-1,-1,-1,-1,-1,-1,-1,-1,-1,-1,-1,-1,-1,-1,-1,-1,-1,-1,-1,-1,-1,-1,-1,-1,-1,-1,-1,-1,-1,-1,-1],"split_conditions":[2.6349998E1,-9.05873E-2,1.095692E-3,-1.0576465E-1,-3.974443E-3,-2.8303353E-2,2.107289E-2,-3.6493085E-2,-1.1057448E-1,-6.2218823E-2,6.811698E-2,-8.613125E-2,-4.1265152E-3,-4.883337E-2,2.530866E-2,7.742391E-3,-1.01168744E-1,1.1540194E-1,-1.626511E-2,-1.3424515E-2,-6.0313966E-2,6.5193154E-2,1.6843578E-2,-3.2104097E-2,4.064667E-2,4.1535076E-2,1.03785805E-1,-5.4065432E-2,2.294228E-2,9.3692867E-4,-7.618277E-2,-1.0603368E-2,1.189056E-1,6.792917E-2,1.0362732E-2,1.4688121E-2,6.827872E-2],"split_indices":[3,5,5,2147483647,2147483647,2147483647,2147483647,2147483647,2147483647,2147483647,2147483647,2147483647,2147483647,2147483647,2147483647,2147483647,2147483647,2147483647,2147483647,2147483647,2147483647,2147483647,2147483647,2147483647,2147483647,2147483647,2147483647,2147483647,2147483647,2147483647,2147483647,2147483647,2147483647,2147483647,2147483647,2147483647,2147483647],"split_type":[0,0,0,0,0,0,0,0,0,0,0,0,0,0,0,0,0,0,0,0,0,0,0,0,0,0,0,0,0,0,0,0,0,0,0,0,0],"sum_hessian":[1.0025908E2,1.7804642E1,8.245444E1,1.4961744E1,2.8428974E0,3.3191723E1,4.9262714E1,1.5289415E0,1.3432802E1,1.6482126E0,1.1946849E0,9.030167E0,2.4161554E1,2.2128873E0,4.7049828E1,1.3137884E0,7.716378E0,1.4432158E0,2.2718338E1,1.0729572E0,1.13993E0,7.0642333E0,3.9985596E1,1.8113194E1,4.605145E0,5.666684E0,1.3975492E0,2.5438168E0,3.744178E1,1.0912222E1,7.2009726E0,3.3051705E0,1.2999742E0,2.4300094E0,3.2366745E0,3.279496E1,4.6468186E0],"tree_param":{"num_deleted":"34","num_feature":"6","num_nodes":"37","size_leaf_vector":"0"}},{"base_weights":[-1.4558375E-1,-8.570198E-1,9.871951E-3,-1.0208321E0,2.7050706E-2,-2.839661E-1,2.0964018E-1,-3.2213023E-1,-1.0707493E0,-5.771972E-1,7.3075664E-1,-8.618227E-1,-4.230024E-2,-4.8905584E-1,2.519962E-1,7.677976E-2,-1.0120903E0,1.1531081E0,-1.6363384E-1,-1.3480574E-1,-6.036915E-1,6.509052E-1,1.6735654E-1,-3.2193813E-1,4.0547186E-1,4.1438234E-1,1.0371206E0,-5.4139495E-1,2.2834246E-1,8.361852E-3,-7.624778E-1,-1.0684992E-1,1.1882832E0,6.784448E-1,1.0278442E-1,1.4581023E-1,6.8183404E-1],"categories":[],"categories_nodes":[],"categories_segments":[],"categories_sizes":[],"default_left":[1,1,1,1,1,1,1,1,1,1,1,1,1,1,1,1,1,1,1,1,1,1,1,1,1,1,1,1,1,1,1,1,1,1,1,1,1],"id":18,"left_children":[1,-1,-1,-1,-1,-1,-1,-1,-1,-1,-1,-1,-1,-1,-1,-1,-1,-1,-1,-1,-1,-1,-1,-1,-1,-1,-1,-1,-1,-1,-1,-1,-1,-1,-1,-1,-1],"loss_changes":[1.1124432E1,2.6395016E0,4.959401E0,1.8666553E-1,2.0348663E0,4.7405653E0,1.6108193E0,0E0,0E0,0E0,0E0,1.4931602E0,3.8396883E0,4.910195E-2,1.513511E0,0E0,0E0,0E0,2.2682407E0,0E0,0E0,3.069687E-1,1.8952876E0,2.7887626E0,2.3754425E0,4.7885883E-1,0E0,0E0,1.3394506E0,0E0,0E0,0E0,0E0,0E0,0E0,0E0,0E0],"parents":[2147483647,0,0,1,1,2,2,3,3,4,4,5,5,6,6,11,11,12,12,13,13,14,14,18,18,21,21,22,22,23,23,24,24,25,25,28,28],"right_children":[2,-1,-1,-1,-1,-1,-1,-1,-1,-1,-1,-1,-1,-1,-1,-1,-1,-1,-1,-1,-1,-1,-1,-1,-1,-1,-1,-1,-1,-1,-1,-1,-1,-1,-1,-1,-1],"split_conditions":[2.6349998E1,-8.570198E-2,9.871952E-4,-1.02083206E-1,2.7050707E-3,-2.839661E-2,2.0964017E-2,-3.2213025E-2,-1.0707493E-1,-5.771972E-2,7.307567E-2,-8.6182274E-2,-4.230024E-3,-4.8905585E-2,2.519962E-2,7.677976E-3,-1.0120904E-1,1.1531081E-1,-1.6363384E-2,-1.3480574E-2,-6.0369153E-2,6.509052E-2,1.6735654E-2,-3.2193813E-2,4.054719E-2,4.1438233E-2,1.0371206E-1,-5.4139495E-2,2.2834247E-2,8.361852E-4,-7.624778E-2,-1.0684992E-2,1.1882832E-1,6.784448E-2,1.0278442E-2,1.4581024E-2,6.818341E-2],"split_indices":[3,5,5,2147483647,2147483647,2147483647,2147483647,2147483647,2147483647,2147483647,2147483647,2147483647,2147483647,2147483647,2147483647,2147483647,2147483647,2147483647,2147483647,2147483647,2147483647,2147483647,2147483647,2147483647,2147483647,2147483647,2147483647,2147483647,2147483647,2147483647,2147483647,2147483647,2147483647,2147483647,2147483647,2147483647,2147483647],"split_type":[0,0,0,0,0,0,0,0,0,0,0,0,0,0,0,0,0,0,0,0,0,0,0,0,0,0,0,0,0,0,0,0,0,0,0,0,0],"sum_hessian":[9.950899E1,1.7035202E1,8.2473785E1,1.4241629E1,2.7935724E0,3.3207527E1,4.9266262E1,1.4465969E0,1.2795032E1,1.5997219E0,1.1938506E0,9.035712E0,2.4171816E1,2.2131011E0,4.7053158E1,1.3144478E0,7.7212644E0,1.4437748E0,2.272804E1,1.0730581E0,1.140043E0,7.0650554E0,3.9988102E1,1.812159E1,4.6064515E0,5.6672783E0,1.3977771E0,2.5441172E0,3.7443985E1,1.0917259E1,7.2043295E0,3.3061805E0,1.300271E0,2.430366E0,3.2369125E0,3.279674E1,4.647245E0],"tree_param":{"num_deleted":"34","num_feature":"6","num_nodes":"37","size_leaf_vector":"0"}},{"base_weights":[-1.3312997E-1,-8.1879807E-1,1.9043829E-1,-1.0272113E0,-4.9206484E-3,3.1602513E-2,1.1146461E0,-1.0687532E0,-4.5695594E-1,-8.8480186E-1,4.3519482E-1,-1.3423643E-1,7.631963E-1,1.1840459E0,4.0845492E-1,-1.1024312E0,-2.2808158E-1,1.2661966E-2,-7.499981E-1,-1.23700984E-1,7.157209E-1,-8.162598E-1,5.178118E-3,-1.5283617E-1,1.0566288E0,8.804406E-1,1.5559809E-1,-1.553854E-1,-8.9099175E-1,1.5007778E-1,-4.590274E-1,2.5433627E-1,-5.2610034E-1,1.5157791E0,7.2375137E-1,-1.0479414E0,-3.5734695E-1,-5.907369E-1,2.7889395E-1,-9.229898E-1,1.5334164E-1,-1.5960944E-1,1.0536826E0],"categories":[],"categories_nodes":[],"categories_segments":[],"categories_sizes":[],"default_left":[1,1,1,1,1,1,1,1,1,1,1,1,1,1,1,1,1,1,1,1,1,1,1,1,1,1,1,1,1,1,1,1,1,1,1,1,1,1,1,1,1,1,1],"id":19,"left_children":[1,-1,5,-1,-1,-1,-1,-1,-1,-1,-1,-1,-1,-1,-1,-1,-1,-1,-1,-1,-1,-1,-1,-1,-1,-1,-1,-1,-1,-1,-1,-1,-1,-1,-1,-1,-1,-1,-1,-1,-1,-1,-1],"loss_changes":[2.2295948E1,5.4538975E0,1.0036486E1,1.1848068E-1,3.3149524E0,7.3307033E0,8.077621E-3,4.0343285E-1,4.892788E-1,0E0,9.843372E-1,4.7030716E0,3.1609397E0,0E0,0E0,0E0,0E0,0E0,0E0,0E0,2.2758508E-1,2.760949E-1,2.8955817E0,6.780477E-1,2.1401882E-1,0E0,0E0,0E0,2.3941135E-1,3.2929895E0,3.0518863E0,0E0,0E0,0E0,2.17526E0,0E0,0E0,0E0,0E0,0E0,0E0,0E0,0E0],"parents":[2147483647,0,0,1,1,2,2,3,3,4,4,5,5,6,6,7,7,8,8,10,10,11,11,12,12,20,20,21,21,22,22,23,23,24,24,28,28,29,29,30,30,34,34],"right_children":[2,-1,6,-1,-1,-1,-1,-1,-1,-1,-1,-1,-1,-1,-1,-1,-1,-1,-1,-1,-1,-1,-1,-1,-1,-1,-1,-1,-1,-1,-1,-1,-1,-1,-1,-1,-1,-1,-1,-1,-1,-1,-1],"split_conditions":[1.065E2,-8.187981E-2,1.655E2,-1.0272113E-1,-4.9206486E-4,3.1602513E-3,1.1146461E-1,-1.0687532E-1,-4.5695595E-2,-8.848019E-2,4.3519482E-2,-1.3423643E-2,7.631963E-2,1.1840459E-1,4.0845495E-2,-1.1024312E-1,-2.2808159E-2,1.2661966E-3,-7.499981E-2,-1.2370098E-2,7.157209E-2,-8.162598E-2,5.178118E-4,-1.5283617E-2,1.0566288E-1,8.804406E-2,1.5559809E-2,-1.5538541E-2,-8.9099176E-2,1.5007778E-2,-4.590274E-2,2.5433628E-2,-5.2610036E-2,1.5157792E-1,7.237514E-2,-1.04794145E-1,-3.5734694E-2,-5.9073694E-2,2.7889395E-2,-9.229898E-2,1.5334164E-2,-1.5960945E-2,1.0536826E-1],"split_indices":[1,3,1,2147483647,2147483647,0,0,2147483647,2147483647,2147483647,2147483647,2147483647,2147483647,2147483647,2147483647,2147483647,2147483647,2147483647,2147483647,2147483647,2147483647,2147483647,2147483647,2147483647,2147483647,2147483647,2147483647,2147483647,2147483647,2147483647,2147483647,2147483647,2147483647,2147483647,2147483647,2147483647,2147483647,2147483647,2147483647,2147483647,2147483647,2147483647,2147483647],"split_type":[0,0,0,0,0,0,0,0,0,0,0,0,0,0,0,0,0,0,0,0,0,0,0,0,0,0,0,0,0,0,0,0,0,0,0,0,0,0,0,0,0,0,0],"sum_hessian":[9.879255E1,3.1182888E1,6.760966E1,2.4616985E1,6.565903E0,5.8576763E1,9.032898E0,2.2130646E1,2.4863386E0,1.8523299E0,4.7135735E0,4.841784E1,1.0158924E1,7.6085186E0,1.4243791E0,2.0978848E1,1.151798E0,1.3229775E0,1.163361E0,1.7620525E0,2.951521E0,7.3935056E0,4.1024334E1,2.5809386E0,7.5779853E0,1.8388774E0,1.1126436E0,1.0639498E0,6.3295555E0,3.17808E1,9.243533E0,1.3867875E0,1.194151E0,1.6914036E0,5.886582E0,4.1463375E0,2.1832182E0,4.1764393E0,2.760436E1,4.9704328E0,4.2731004E0,1.7411214E0,4.1454606E0],"tree_param":{"num_deleted":"38","num_feature":"6","num_nodes":"43","size_leaf_vector":"0"}},{"base_weights":[-1.2183765E-1,-6.7467266E-1,2.2952576E-1,-8.7856287E-1,2.579306E-2,7.214459E-2,1.0488902E0,-9.503321E-1,-3.3468163E-1,-7.177462E-1,6.48042E-1,-5.0285E-2,6.1098486E-1,1.1188287E0,3.5484937E-1,-2.9262716E-1,-9.744791E-1,9.91798E-2,-8.6357653E-1,-9.905283E-1,-1.00597106E-1,1.0252568E0,-3.889924E-1,2.411578E-1,-3.1498817E-1,-1.0159257E-1,7.972975E-1,-3.3581737E-1,4.9783534E-1,2.0110849E-1,1.2268105E0,7.971605E-1,1.0088429E-1,-6.34301E-1,-2.519406E-2,9.8630285E-1,4.3338522E-1,5.49858E-1,-2.812581E-2,-9.3686134E-1,3.1163973E-1,3.4239054E-1,-5.8789647E-1,7.932516E-1,-1.21682715E-2],"categories":[],"categories_nodes":[],"categories_segments":[],"categories_sizes":[],"default_left":[1,1,1,1,1,1,1,1,1,1,1,1,1,1,1,1,1,1,1,1,1,1,1,1,1,1,1,1,1,1,1,1,1,1,1,1,1,1,1,1,1,1,1,1,1],"id":20,"left_children":[1,-1,-1,-1,-1,-1,-1,-1,-1,-1,-1,-1,-1,-1,-1,-1,-1,-1,-1,-1,-1,-1,-1,-1,-1,-1,-1,-1,-1,-1,-1,-1,-1,-1,-1,-1,-1,-1,-1,-1,-1,-1,-1,-1,-1],"loss_changes":[1.9225487E1,5.5075684E0,7.761149E0,8.441696E-1,4.9206004E0,3.4647617E0,7.471466E-2,1.2395477E-1,1.236338E0,7.1883845E-1,2.6552134E0,3.4195359E0,1.3705962E0,0E0,0E0,0E0,0E0,8.0045265E-1,0E0,0E0,0E0,5.0154877E-1,0E0,1.572624E0,2.125836E0,0E0,1.0995865E-1,0E0,0E0,0E0,0E0,0E0,1.0621091E0,3.431851E0,2.9264646E0,0E0,7.2390944E-1,0E0,0E0,0E0,0E0,0E0,0E0,0E0,0E0],"parents":[2147483647,0,0,1,1,2,2,3,3,4,4,5,5,6,6,7,7,8,8,9,9,10,10,11,11,12,12,17,17,21,21,23,23,24,24,26,26,32,32,33,33,34,34,36,36],"right_children":[2,-1,-1,-1,-1,-1,-1,-1,-1,-1,-1,-1,-1,-1,-1,-1,-1,-1,-1,-1,-1,-1,-1,-1,-1,-1,-1,-1,-1,-1,-1,-1,-1,-1,-1,-1,-1,-1,-1,-1,-1,-1,-1,-1,-1],"split_conditions":[1.115E2,-6.7467265E-2,2.2952577E-2,-8.7856285E-2,2.579306E-3,7.214459E-3,1.0488903E-1,-9.503321E-2,-3.3468165E-2,-7.1774624E-2,6.4804204E-2,-5.0285E-3,6.1098486E-2,1.11882865E-1,3.5484936E-2,-2.9262716E-2,-9.744791E-2,9.91798E-3,-8.635765E-2,-9.905283E-2,-1.0059711E-2,1.02525674E-1,-3.889924E-2,2.411578E-2,-3.1498816E-2,-1.0159257E-2,7.972975E-2,-3.3581737E-2,4.9783535E-2,2.011085E-2,1.22681044E-1,7.971605E-2,1.0088429E-2,-6.34301E-2,-2.5194061E-3,9.863029E-2,4.3338522E-2,5.49858E-2,-2.812581E-3,-9.368613E-2,3.1163974E-2,3.4239054E-2,-5.8789648E-2,7.932516E-2,-1.2168272E-3],"split_indices":[1,0,1,2147483647,2147483647,2147483647,2147483647,2147483647,2147483647,2147483647,2147483647,2147483647,2147483647,2147483647,2147483647,2147483647,2147483647,2147483647,2147483647,2147483647,2147483647,2147483647,2147483647,2147483647,2147483647,2147483647,2147483647,2147483647,2147483647,2147483647,2147483647,2147483647,2147483647,2147483647,2147483647,2147483647,2147483647,2147483647,2147483647,2147483647,2147483647,2147483647,2147483647,2147483647,2147483647],"split_type":[0,0,0,0,0,0,0,0,0,0,0,0,0,0,0,0,0,0,0,0,0,0,0,0,0,0,0,0,0,0,0,0,0,0,0,0,0,0,0,0,0,0,0,0,0],"sum_hessian":[9.717774E1,3.7404835E1,5.9772903E1,2.877485E1,8.629984E0,5.1054546E1,8.71836E0,2.4760237E1,4.0146136E0,3.8618731E0,4.7681103E0,4.2340958E1,8.713585E0,7.3642187E0,1.354142E0,1.341434E0,2.3418804E1,2.6517859E0,1.3628275E0,2.2585704E0,1.6033027E0,3.5046668E0,1.2634435E0,2.0194935E1,2.2146025E1,1.9003114E0,6.813274E0,1.3434699E0,1.308316E0,1.0812504E0,2.4234164E0,3.125092E0,1.7069841E1,9.970796E0,1.217523E1,3.3586257E0,3.4546483E0,3.0819793E0,1.3987863E1,7.561756E0,2.4090393E0,7.6012487E0,4.573981E0,1.4793931E0,1.9752551E0],"tree_param":{"num_deleted":"42","num_feature":"6","num_nodes":"45","size_leaf_vector":"0"}},{"base_weights":[-1.1190579E-1,-2.6847354E-1,3.4757012E-1,-4.808843E-1,-8.25247E-2,-1.4371885E-2,1.0981178E0,-5.629322E-1,2.919661E-1,5.1711476E-1,-2.1457991E-1,-3.947122E-1,2.5802228E-1,3.3217958E-1,1.3599957E0,2.0673439E-1,-6.1759186E-1,-1.688416E-1,6.304241E-1,-2.0080051E-1,7.854352E-1,-5.3354293E-1,-1.2593444E-2,-6.7794055E-1,5.6437624E-1,6.125029E-1,-3.1355265E-1,-4.051094E-2,5.4184765E-1,4.1749567E-1,1.6008989E0,-9.2929894E-1,-4.4536975E-1,1.0783662E0,-1.7898235E-1,-6.5839505E-1,1.839249E-1,8.2906544E-1,-2.4771422E-1,1.598192E-1,-1.165168E0,9.973114E-1,2.8074005E-1,-7.273229E-1,1.0061663E-1,-1.0687268E0,-2.8052358E-2,2.0994411E-1,-5.33211E-1,-8.419613E-3,-8.054417E-1,1.5976334E-1,1.3296429E0,-4.4268113E-1,5.1001483E-1,-1.2444152E-1,3.7550536E-1,-4.017396E-1,9.7053456E-1,7.962209E-1,-5.808681E-1],"categories":[],"categories_nodes":[],"categories_segments":[],"categories_sizes":[],"default_left":[1,1,1,1,1,1,1,1,1,1,1,1,1,1,1,1,1,1,1,1,1,1,1,1,1,1,1,1,1,1,1,1,1,1,1,1,1,1,1,1,1,1,1,1,1,1,1,1,1,1,1,1,1,1,1,1,1,1,1,1,1],"id":21,"left_children":[-1,-1,-1,-1,-1,-1,-1,-1,-1,-1,-1,-1,-1,-1,-1,-1,-1,-1,-1,-1,-1,-1,-1,-1,-1,-1,-1,-1,-1,-1,-1,-1,-1,-1,-1,-1,-1,-1,-1,-1,-1,-1,-1,-1,-1,-1,-1,-1,-1,-1,-1,-1,-1,-1,-1,-1,-1,-1,-1,-1,-1],"loss_changes":[7.07213E0,2.8404403E0,6.8318577E0,2.3095727E0,3.2854013E0,1.9578663E0,1.18822E0,1.4286909E0,7.155311E-1,1.6079221E0,2.1554394E0,2.5208025E0,2.429592E0,2.8813022E-1,6.4165497E-1,0E0,1.1496515E0,0E0,0E0,0E0,1.7987227E0,1.2845306E0,4.474322E0,2.8520877E0,0E0,6.3343024E-1,9.109595E-1,0E0,0E0,0E0,0E0,1.1568546E0,1.3023858E0,0E0,0E0,1.0714445E0,0E0,1.4428091E0,2.8305452E0,2.4789146E-1,0E0,0E0,2.8539128E0,0E0,2.037101E0,0E0,0E0,0E0,0E0,0E0,0E0,0E0,0E0,0E0,0E0,0E0,0E0,0E0,0E0,0E0,0E0],"parents":[2147483647,0,0,1,1,2,2,3,3,4,4,5,5,6,6,7,7,8,8,9,9,10,10,11,11,12,12,13,13,14,14,16,16,20,20,21,21,22,22,23,23,25,25,26,26,31,31,32,32,35,35,37,37,38,38,39,39,42,42,44,44],"right_children":[-1,-1,-1,-1,-1,-1,-1,-1,-1,-1,-1,-1,-1,-1,-1,-1,-1,-1,-1,-1,-1,-1,-1,-1,-1,-1,-1,-1,-1,-1,-1,-1,-1,-1,-1,-1,-1,-1,-1,-1,-1,-1,-1,-1,-1,-1,-1,-1,-1,-1,-1,-1,-1,-1,-1,-1,-1,-1,-1,-1,-1],"split_conditions":[-1.1190579E-2,-2.6847353E-2,3.4757014E-2,-4.808843E-2,-8.252471E-3,-1.4371885E-3,1.0981178E-1,-5.629322E-2,2.919661E-2,5.1711477E-2,-2.145799E-2,-3.947122E-2,2.5802229E-2,3.321796E-2,1.3599958E-1,2.0673439E-2,-6.1759185E-2,-1.6884161E-2,6.304241E-2,-2.008005E-2,7.854352E-2,-5.3354293E-2,-1.2593445E-3,-6.7794055E-2,5.6437623E-2,6.1250288E-2,-3.1355266E-2,-4.0510944E-3,5.4184765E-2,4.1749567E-2,1.600899E-1,-9.292989E-2,-4.4536974E-2,1.0783662E-1,-1.7898235E-2,-6.583951E-2,1.839249E-2,8.2906544E-2,-2.4771422E-2,1.598192E-2,-1.16516806E-1,9.973114E-2,2.8074006E-2,-7.273229E-2,1.0061663E-2,-1.0687268E-1,-2.8052358E-3,2.0994412E-2,-5.33211E-2,-8.4196136E-4,-8.0544166E-2,1.5976334E-2,1.329643E-1,-4.4268113E-2,5.1001485E-2,-1.24441525E-2,3.7550535E-2,-4.017396E-2,9.705346E-2,7.962209E-2,-5.8086812E-2],"split_indices":[0,2147483647,2147483647,2147483647,2147483647,2147483647,2147483647,2147483647,2147483647,2147483647,2147483647,2147483647,2147483647,2147483647,2147483647,2147483647,2147483647,2147483647,2147483647,2147483647,2147483647,2147483647,2147483647,2147483647,2147483647,2147483647,2147483647,2147483647,2147483647,2147483647,2147483647,2147483647,2147483647,2147483647,2147483647,2147483647,2147483647,2147483647,2147483647,2147483647,2147483647,2147483647,2147483647,2147483647,2147483647,2147483647,2147483647,2147483647,2147483647,2147483647,2147483647,2147483647,2147483647,2147483647,2147483647,2147483647,2147483647,2147483647,2147483647,2147483647,2147483647],"split_type":[0,0,0,0,0,0,0,0,0,0,0,0,0,0,0,0,0,0,0,0,0,0,0,0,0,0,0,0,0,0,0,0,0,0,0,0,0,0,0,0,0,0,0,0,0,0,0,0,0,0,0,0,0,0,0,0,0,0,0,0,0],"sum_hessian":[9.601006E1,7.191911E1,2.409095E1,3.2830486E1,3.908863E1,1.6914839E1,7.1761117E0,2.9925165E1,2.905319E0,6.5284033E0,3.2560226E1,6.871377E0,1.0043461E1,2.406386E0,4.769726E0,1.7998044E0,2.812536E1,1.442505E0,1.462814E0,1.8446137E0,4.6837897E0,1.198805E1,2.0572176E1,5.5311227E0,1.3402544E0,6.154774E0,3.8886867E0,1.1568464E0,1.2495396E0,1.5273243E0,3.2424014E0,8.444898E0,1.9680464E1,3.501957E0,1.1818326E0,1.0281264E1,1.7067865E0,3.9404547E0,1.6631721E1,2.281021E0,3.2501018E0,1.9207807E0,4.2339935E0,1.567048E0,2.3216386E0,7.1525297E0,1.2923676E0,2.161936E0,1.7518528E1,2.0919018E0,8.189363E0,2.2505252E0,1.6899296E0,1.3558771E1,3.0729506E0,1.1665825E0,1.1144385E0,2.338192E0,1.8958014E0,1.0655994E0,1.2560393E0],"tree_param":{"num_deleted":"60","num_feature":"6","num_nodes":"61","size_leaf_vector":"0"}},{"base_weights":[-1.01146504E-1,-4.2855018E-1,4.313103E-1,-8.705307E-1,-1.9445305E-1,2.0976138E-1,1.0421267E0,-9.4986486E-1,2.8741932E-1,-6.250677E-1,1.4667247E-1,6.170388E-1,-3.8093764E-2,-9.239582E-2,-9.914474E-1,-3.9128757E-1,-7.998765E-1,6.705443E-1,-1.4775845E-2,1.4363396E-1,1.0329384E0,-4.8165944E-1,6.8026954E-1,-5.689257E-1,2.9721075E-1,1.4474191E-1,-9.553749E-1,-3.1685628E-2,1.1339344E0,6.763036E-2,-7.3194414E-1,-3.3015215E-1,4.787549E-1,1.2740275E0,8.761371E-2,-7.871612E-1,-5.3488646E-2,8.918539E-1,-2.3669425E-1,-2.1424152E-1,-6.7145365E-1,-1.1163015E0,-3.2676798E-1,-2.4879032E-1,2.076241E-1,3.095163E-1,-2.765155E-1,-9.9469167E-1,1.8414806E-1,8.1264764E-1,-6.4472467E-1],"categories":[],"categories_nodes":[],"categories_segments":[],"categories_sizes":[],"default_left":[1,1,1,1,1,1,1,1,1,1,1,1,1,1,1,1,1,1,1,1,1,1,1,1,1,1,1,1,1,1,1,1,1,1,1,1,1,1,1,1,1,1,1,1,1,1,1,1,1,1,1],"id":22,"left_children":[1,-1,-1,-1,-1,-1,-1,-1,-1,-1,-1,-1,-1,-1,-1,-1,-1,-1,-1,-1,-1,-1,-1,-1,-1,-1,-1,-1,-1,-1,-1,-1,-1,-1,-1,-1,-1,-1,-1,-1,-1,-1,-1,-1,-1,-1,-1,-1,-1,-1,-1],"loss_changes":[1.7046377E1,6.07967E0,4.8326993E0,2.167719E0,6.0806785E0,2.9149697E0,0E0,6.0492134E-1,0E0,4.312725E-1,2.0025108E0,1.9967151E0,6.3018174E0,0E0,0E0,1.3614601E0,1.5281878E0,1.8489892E0,1.1716528E0,1.151474E0,1.1733603E0,1.5507259E0,1.6801598E0,1.5044594E-1,0E0,0E0,4.7045422E-1,2.1727927E-1,0E0,1.5794936E0,0E0,0E0,0E0,0E0,0E0,1.6009688E0,3.669912E0,0E0,0E0,0E0,0E0,0E0,0E0,0E0,0E0,0E0,0E0,0E0,0E0,0E0,0E0],"parents":[2147483647,0,0,1,1,2,2,3,3,4,4,5,5,7,7,9,9,10,10,11,11,12,12,15,15,16,16,17,17,18,18,19,19,20,20,21,21,22,22,23,23,26,26,27,27,29,29,35,35,36,36],"right_children":[2,-1,-1,-1,-1,-1,-1,-1,-1,-1,-1,-1,-1,-1,-1,-1,-1,-1,-1,-1,-1,-1,-1,-1,-1,-1,-1,-1,-1,-1,-1,-1,-1,-1,-1,-1,-1,-1,-1,-1,-1,-1,-1,-1,-1,-1,-1,-1,-1,-1,-1],"split_conditions":[1.285E2,-4.285502E-2,4.313103E-2,-8.7053075E-2,-1.9445306E-2,2.097614E-2,1.04212664E-1,-9.498649E-2,2.8741932E-2,-6.250677E-2,1.4667247E-2,6.170388E-2,-3.8093764E-3,-9.239582E-3,-9.914474E-2,-3.9128758E-2,-7.998765E-2,6.7054436E-2,-1.4775846E-3,1.4363396E-2,1.03293836E-1,-4.8165943E-2,6.802695E-2,-5.689257E-2,2.9721076E-2,1.4474191E-2,-9.553749E-2,-3.168563E-3,1.1339344E-1,6.763036E-3,-7.3194414E-2,-3.3015218E-2,4.787549E-2,1.2740275E-1,8.7613715E-3,-7.871612E-2,-5.3488645E-3,8.9185394E-2,-2.3669425E-2,-2.1424152E-2,-6.714537E-2,-1.1163016E-1,-3.2676797E-2,-2.4879033E-2,2.076241E-2,3.0951632E-2,-2.7651552E-2,-9.946917E-2,1.8414807E-2,8.1264764E-2,-6.447247E-2],"split_indices":[1,1,1,2147483647,2147483647,2147483647,2147483647,2147483647,2147483647,2147483647,2147483647,2147483647,2147483647,2147483647,2147483647,2147483647,2147483647,2147483647,2147483647,2147483647,2147483647,2147483647,2147483647,2147483647,2147483647,2147483647,2147483647,2147483647,2147483647,2147483647,2147483647,2147483647,2147483647,2147483647,2147483647,2147483647,2147483647,2147483647,2147483647,2147483647,2147483647,2147483647,2147483647,2147483647,2147483647,2147483647,2147483647,2147483647,2147483647,2147483647,2147483647],"split_type":[0,0,0,0,0,0,0,0,0,0,0,0,0,0,0,0,0,0,0,0,0,0,0,0,0,0,0,0,0,0,0,0,0,0,0,0,0,0,0,0,0,0,0,0,0,0,0,0,0,0,0],"sum_hessian":[9.5722885E1,5.9395924E1,3.632696E1,1.9624939E1,3.977099E1,2.764373E1,8.683232E0,1.8534775E1,1.0901637E0,1.7211695E1,2.2559292E1,9.894879E0,1.7748852E1,1.0062842E0,1.752849E1,8.749264E0,8.462432E0,4.5716786E0,1.7987614E1,5.256703E0,4.638176E0,1.1176955E1,6.571897E0,7.0929084E0,1.6563555E0,1.2059186E0,7.256513E0,2.1878269E0,2.3838515E0,1.6946117E1,1.041495E0,2.1839347E0,3.0727684E0,3.4186041E0,1.2195718E0,6.0335574E0,5.143398E0,5.3620234E0,1.2098737E0,2.2833843E0,4.809524E0,5.1597543E0,2.0967584E0,1.1263616E0,1.0614654E0,1.0010661E1,6.9354568E0,4.951536E0,1.0820211E0,1.9346808E0,3.2087169E0],"tree_param":{"num_deleted":"48","num_feature":"6","num_nodes":"51","size_leaf_vector":"0"}},{"base_weights":[-9.24199E-2,-7.8860277E-1,5.0118726E-2,-9.4490385E-1,-1.8222289E-1,-1.0411167E-1,4.5942876E-1,-1.3738608E-1,-1.0082035E0,-6.218695E-1,3.584858E-1,-4.433361E-1,3.7296046E-2,2.2307184E-1,1.2334543E0,-5.773173E-1,5.2166325E-1,8.9954364E-1,-4.4767514E-2,7.526198E-1,-9.367131E-2,1.4247504E0,2.5546426E-1,1.7376499E-1,-6.479347E-1,2.8950477E-1,1.1429734E0,4.0645635E-1,-1.6820246E-1,5.8662E-2,1.0363181E0,4.9397245E-2,-8.2100886E-1,-1.0066477E0,-4.9018064E-1,7.248802E-1,-4.3706903E-1,-2.7400172E-1,7.2617304E-1,-6.72979E-1,2.2148451E-1],"categories":[],"categories_nodes":[],"categories_segments":[],"categories_sizes":[],"default_left":[1,1,1,1,1,1,1,1,1,1,1,1,1,1,1,1,1,1,1,1,1,1,1,1,1,1,1,1,1,1,1,1,1,1,1,1,1,1,1,1,1],"id":23,"left_children":[1,-1,-1,-1,-1,-1,-1,-1,-1,-1,-1,-1,-1,-1,-1,-1,-1,-1,-1,-1,-1,-1,-1,-1,-1,-1,-1,-1,-1,-1,-1,-1,-1,-1,-1,-1,-1,-1,-1,-1,-1],"loss_changes":[9.518495E0,1.3720846E0,5.1125236E0,5.1144695E-1,1.3112326E0,2.8508754E0,3.7756248E0,0E0,0E0,0E0,0E0,2.5588195E0,3.056398E0,3.120354E0,5.637531E-1,9.5101166E-1,0E0,2.2623396E-1,2.289199E0,1.3008101E0,1.3170443E0,0E0,0E0,0E0,3.3617592E-1,0E0,0E0,2.695916E0,3.2284808E0,0E0,0E0,1.5405859E0,0E0,0E0,0E0,0E0,0E0,0E0,0E0,0E0,0E0],"parents":[2147483647,0,0,1,1,2,2,3,3,4,4,5,5,6,6,11,11,12,12,13,13,14,14,15,15,17,17,18,18,19,19,20,20,24,24,27,27,28,28,31,31],"right_children":[2,-1,-1,-1,-1,-1,-1,-1,-1,-1,-1,-1,-1,-1,-1,-1,-1,-1,-1,-1,-1,-1,-1,-1,-1,-1,-1,-1,-1,-1,-1,-1,-1,-1,-1,-1,-1,-1,-1,-1,-1],"split_conditions":[2.6349998E1,-7.8860275E-2,5.011873E-3,-9.449039E-2,-1.822229E-2,-1.04111675E-2,4.5942876E-2,-1.3738609E-2,-1.00820355E-1,-6.2186953E-2,3.584858E-2,-4.433361E-2,3.7296047E-3,2.2307185E-2,1.23345435E-1,-5.773173E-2,5.2166324E-2,8.995437E-2,-4.4767517E-3,7.526198E-2,-9.367131E-3,1.4247505E-1,2.5546426E-2,1.73765E-2,-6.479347E-2,2.8950477E-2,1.14297345E-1,4.0645637E-2,-1.6820246E-2,5.8662E-3,1.0363181E-1,4.9397247E-3,-8.210089E-2,-1.0066477E-1,-4.9018066E-2,7.2488025E-2,-4.3706905E-2,-2.7400171E-2,7.261731E-2,-6.72979E-2,2.214845E-2],"split_indices":[3,0,0,2147483647,2147483647,2147483647,2147483647,2147483647,2147483647,2147483647,2147483647,2147483647,2147483647,2147483647,2147483647,2147483647,2147483647,2147483647,2147483647,2147483647,2147483647,2147483647,2147483647,2147483647,2147483647,2147483647,2147483647,2147483647,2147483647,2147483647,2147483647,2147483647,2147483647,2147483647,2147483647,2147483647,2147483647,2147483647,2147483647,2147483647,2147483647],"split_type":[0,0,0,0,0,0,0,0,0,0,0,0,0,0,0,0,0,0,0,0,0,0,0,0,0,0,0,0,0,0,0,0,0,0,0,0,0,0,0,0,0],"sum_hessian":[9.4522415E1,1.5293551E1,7.922886E1,1.1715487E1,3.5780654E0,5.808699E1,2.1141872E1,1.082055E0,1.0633431E1,1.8906718E0,1.6873934E0,1.6461697E1,4.1625294E1,1.7183044E1,3.9588282E0,1.4807548E1,1.6541479E0,2.7516773E0,3.8873615E1,5.9160905E0,1.1266953E1,2.9290812E0,1.0297471E0,1.1470397E0,1.3660508E1,1.4092782E0,1.3423991E0,7.8574295E0,3.1016186E1,2.0669284E0,3.8491623E0,1.0193884E1,1.0730697E0,2.5289247E0,1.1131583E1,5.806266E0,2.0511637E0,2.8355536E1,2.6606507E0,1.4012263E0,8.792658E0],"tree_param":{"num_deleted":"38","num_feature":"6","num_nodes":"41","size_leaf_vector":"0"}},{"base_weights":[-8.470633E-2,-7.000623E-1,1.7750373E-1,-8.0624443E-1,4.5804787E-1,3.7466925E-2,1.0220047E0,-9.155776E-1,2.1328589E-2,-1.5894562E-1,4.7512767E-1,4.3170223E-1,1.2284663E0,-1.0300591E0,-3.7800187E-1,-6.861354E-1,5.288181E-1,-3.242252E-1,2.536078E-1,1.2887161E0,2.1493427E-1,-8.448297E-2,8.5925764E-1,-2.551657E-1,-1.0754211E0,-7.589145E-1,4.1779128E-1,-1.528191E-1,-1.0636729E0,9.000204E-1,-1.3708527E-1,2.2000936E-1,1.5498056E0,3.8036447E-2,1.2473358E0,-2.4123818E-1,-8.648166E-1,5.462755E-2,-8.751812E-1,2.053968E-1,1.2724631E0,-5.640337E-1,8.92976E-1,-1.8446492E-1,7.955749E-1],"categories":[],"categories_nodes":[],"categories_segments":[],"categories_sizes":[],"default_left":[1,1,1,1,1,1,1,1,1,1,1,1,1,1,1,1,1,1,1,1,1,1,1,1,1,1,1,1,1,1,1,1,1,1,1,1,1,1,1,1,1,1,1,1,1],"id":24,"left_children":[1,-1,-1,-1,-1,-1,-1,-1,-1,-1,-1,-1,-1,-1,-1,-1,-1,-1,-1,-1,-1,-1,-1,-1,-1,-1,-1,-1,-1,-1,-1,-1,-1,-1,-1,-1,-1,-1,-1,-1,-1,-1,-1,-1,-1],"loss_changes":[1.5448032E1,3.8836536E0,7.9315624E0,2.4209785E0,0E0,5.1339083E0,6.3326836E-1,1.0548191E0,1.8256927E0,2.9028296E0,3.6347332E0,9.5887506E-1,0E0,3.852539E-1,2.044806E0,0E0,0E0,3.6363752E0,3.2532544E0,8.525586E-1,2.7287185E0,0E0,0E0,0E0,0E0,2.2161484E-2,0E0,3.8690577E0,0E0,9.8065877E-1,4.2824078E0,0E0,0E0,2.5079992E0,0E0,0E0,0E0,0E0,0E0,0E0,0E0,0E0,0E0,0E0,0E0],"parents":[2147483647,0,0,1,1,2,2,3,3,5,5,6,6,7,7,8,8,9,9,10,10,11,11,13,13,14,14,17,17,18,18,19,19,20,20,25,25,27,27,29,29,30,30,33,33],"right_children":[2,-1,-1,-1,-1,-1,-1,-1,-1,-1,-1,-1,-1,-1,-1,-1,-1,-1,-1,-1,-1,-1,-1,-1,-1,-1,-1,-1,-1,-1,-1,-1,-1,-1,-1,-1,-1,-1,-1,-1,-1,-1,-1,-1,-1],"split_conditions":[1.065E2,-7.000623E-2,1.7750373E-2,-8.0624446E-2,4.5804787E-2,3.7466926E-3,1.0220047E-1,-9.155776E-2,2.1328588E-3,-1.5894562E-2,4.7512766E-2,4.3170225E-2,1.22846626E-1,-1.0300591E-1,-3.780019E-2,-6.8613544E-2,5.2881807E-2,-3.242252E-2,2.5360782E-2,1.288716E-1,2.1493427E-2,-8.448297E-3,8.5925765E-2,-2.551657E-2,-1.0754211E-1,-7.589145E-2,4.1779127E-2,-1.528191E-2,-1.0636729E-1,9.0002045E-2,-1.3708527E-2,2.2000937E-2,1.5498057E-1,3.8036448E-3,1.2473358E-1,-2.4123818E-2,-8.648166E-2,5.462755E-3,-8.751812E-2,2.053968E-2,1.272463E-1,-5.640337E-2,8.92976E-2,-1.8446492E-2,7.955749E-2],"split_indices":[1,2,1,2147483647,2147483647,2147483647,2147483647,2147483647,2147483647,2147483647,2147483647,2147483647,2147483647,2147483647,2147483647,2147483647,2147483647,2147483647,2147483647,2147483647,2147483647,2147483647,2147483647,2147483647,2147483647,2147483647,2147483647,2147483647,2147483647,2147483647,2147483647,2147483647,2147483647,2147483647,2147483647,2147483647,2147483647,2147483647,2147483647,2147483647,2147483647,2147483647,2147483647,2147483647,2147483647],"split_type":[0,0,0,0,0,0,0,0,0,0,0,0,0,0,0,0,0,0,0,0,0,0,0,0,0,0,0,0,0,0,0,0,0,0,0,0,0,0,0,0,0,0,0,0,0],"sum_hessian":[9.397075E1,2.7578808E1,6.639194E1,2.55409E1,2.0379088E0,5.784443E1,8.547512E0,2.246645E1,3.0744495E0,4.0365917E1,1.747851E1,3.0158195E0,5.531692E0,1.7766745E1,4.699704E0,1.1371669E0,1.9372826E0,2.8972776E1,1.1393142E1,3.2774537E0,1.42010565E1,1.7298211E0,1.2859985E0,1.3489254E0,1.641782E1,3.2096987E0,1.4900053E0,2.4500221E1,4.4725556E0,3.800861E0,7.592281E0,1.0052726E0,2.272181E0,1.3008881E1,1.1921763E0,1.1017928E0,2.1079059E0,1.9752197E1,4.748024E0,1.8681523E0,1.9327087E0,5.6873627E0,1.9049184E0,1.0640181E1,2.3687E0],"tree_param":{"num_deleted":"42","num_feature":"6","num_nodes":"45","size_leaf_vector":"0"}},{"base_weights":[-7.801638E-2,-7.417368E-1,5.1763907E-2,-9.333044E-1,1.5554594E-1,-2.3959972E-1,2.4554476E-1,-1.806875E-1,-9.9311125E-1,-4.769443E-1,7.807471E-1,-8.215699E-1,-3.3550963E-3,-4.855114E-1,2.8915253E-1,8.347813E-2,-9.77207E-1,1.1539332E0,-1.2786719E-1,7.207504E-1,1.9703396E-1,1.5341462E-1,-4.562607E-1,4.7302678E-1,1.0894178E0,-5.40968E-1,2.6097953E-1,-1.5264209E-1,4.7249132E-1,2.0040916E-1,-9.449778E-1,7.351728E-1,1.4582144E-1,1.7182633E-1,7.4435586E-1],"categories":[],"categories_nodes":[],"categories_segments":[],"categories_sizes":[],"default_left":[1,1,1,1,1,1,1,1,1,1,1,1,1,1,1,1,1,1,1,1,1,1,1,1,1,1,1,1,1,1,1,1,1,1,1],"id":25,"left_children":[1,-1,-1,-1,-1,-1,-1,-1,-1,-1,-1,-1,-1,-1,-1,-1,-1,-1,-1,-1,-1,-1,-1,-1,-1,-1,-1,-1,-1,-1,-1,-1,-1,-1,-1],"loss_changes":[8.135274E0,2.799015E0,4.5508413E0,3.9966488E-1,1.7854341E0,4.4359784E0,1.6793892E0,0E0,0E0,0E0,0E0,1.3940315E0,3.6011326E0,0E0,1.6941974E0,0E0,0E0,0E0,2.1519756E0,1.922226E-1,2.0022953E0,1.33079E0,3.60738E0,4.418584E-1,0E0,0E0,1.465178E0,0E0,0E0,0E0,0E0,0E0,0E0,0E0,0E0],"parents":[2147483647,0,0,1,1,2,2,3,3,4,4,5,5,6,6,11,11,12,12,14,14,18,18,19,19,20,20,21,21,22,22,23,23,26,26],"right_children":[2,-1,-1,-1,-1,-1,-1,-1,-1,-1,-1,-1,-1,-1,-1,-1,-1,-1,-1,-1,-1,-1,-1,-1,-1,-1,-1,-1,-1,-1,-1,-1,-1,-1,-1],"split_conditions":[2.6349998E1,-7.417368E-2,5.176391E-3,-9.333044E-2,1.5554594E-2,-2.3959972E-2,2.4554476E-2,-1.8068751E-2,-9.931113E-2,-4.769443E-2,7.8074716E-2,-8.215699E-2,-3.3550963E-4,-4.855114E-2,2.8915254E-2,8.347813E-3,-9.7720705E-2,1.1539332E-1,-1.2786719E-2,7.207504E-2,1.9703396E-2,1.5341463E-2,-4.562607E-2,4.730268E-2,1.08941786E-1,-5.40968E-2,2.6097953E-2,-1.5264208E-2,4.7249135E-2,2.0040916E-2,-9.4497785E-2,7.3517285E-2,1.4582144E-2,1.7182633E-2,7.4435584E-2],"split_indices":[3,5,5,2147483647,2147483647,2147483647,2147483647,2147483647,2147483647,2147483647,2147483647,2147483647,2147483647,2147483647,2147483647,2147483647,2147483647,2147483647,2147483647,2147483647,2147483647,2147483647,2147483647,2147483647,2147483647,2147483647,2147483647,2147483647,2147483647,2147483647,2147483647,2147483647,2147483647,2147483647,2147483647],"split_type":[0,0,0,0,0,0,0,0,0,0,0,0,0,0,0,0,0,0,0,0,0,0,0,0,0,0,0,0,0,0,0,0,0,0,0],"sum_hessian":[9.299911E1,1.4439172E1,7.855994E1,1.1865725E1,2.5734468E0,3.1284683E1,4.727525E1,1.1695203E0,1.0696204E1,1.3971463E0,1.1763005E0,8.317514E0,2.2967169E1,2.0907972E0,4.5184452E1,1.2884811E0,7.0290327E0,1.4278893E0,2.153928E1,6.7473454E0,3.8437107E1,1.1888851E1,9.65043E0,5.40115E0,1.3461952E0,2.4700618E0,3.5967045E1,6.334472E0,5.554379E0,4.369386E0,5.2810435E0,2.3064642E0,3.094686E0,3.1510727E1,4.456319E0],"tree_param":{"num_deleted":"32","num_feature":"6","num_nodes":"35","size_leaf_vector":"0"}},{"base_weights":[-7.156076E-2,-4.5019853E-1,1.3297024E-1,-7.1824974E-1,2.76199E-1,